tree
version=v4
num_class=11
num_tree_per_iteration=11
label_index=0
max_feature_idx=11
objective=multiclass num_class:11
feature_names=CP CPK COUNT YIELD REJ REJ% LSL MIN MEAN STD MAX USL
feature_infos=[0.33916102940606413:35.124265075064713] [0.0066270231040640743:1.6659727149541281] [1960:2594] none none none [-48:10000000] [-47.947119999999998:29467520] [-43.950964342052288:51265363.027667984] [1.8546766516694492e-12:11426292.541915987] [-38.370080000000002:133706200] [-38:159000000]
tree_sizes=1168 764 452 1964 759 1441 763 1445 1057 1067 1085 3497 3559 3578 3431 3544 3409 3526 3468 3481 3454 3572 3480 3569 3589 3428 3541 3414 3523 3450 3480 3464 3601 3514 3581 3599 3438 3540 3396 3513 3435 3487 3470 3592 3531 3582 3593 3427 3532 3423 3531 3431 3476 3450 3601 3523 3576 3602 3429 3549 3424 3509 3442 3501 3456 3599 3522 3572 3578 3433 3551 3441 3503 3451 3490 3449 3593 3512 3570 3605 3442 3561 3421 3521 3439 3504 3453 3596 3507 3583 3606 3440 3561 3407 3529 3444 3501 3455 3594 3509 3581 3586 3425 3563 3430 3539 3443 3499 3450 3602 3525 3567 3579 3421 3576 3404 3525 3448 3493 3458 3614 3516 3594 3592 3444 3571 3411 3515 3455 3490 3453 3596 3517 3570 3594 3438 3561 3417 3502 3423 3502 3451 3610 3523 3577 3606 3442 3558 3421 3515 3456 3490 3457 3611 3527 3570 3607 3435 3563 3424 3532 3463 3496 3455 3613 3512 3566 3608 3444 3593 3422 3532 3458 3489 3443 3623 3522 3588 3604 3435 3577 3423 3524 3468 3500 3449 3619 3523 3576 3610 3442 3578 3431 3534 3457 3510 3458 3631 3526 3580 3617 3440 3578 3426 3522 3463 3505 3458 3630 3538 3584 3615 3450 3582 3421 3530 3465 3504 3452 3634 3532 3582 3630 3451 3575 3424 3538 3469 3505 3444 3629 3526 3577 3619 3443 3584 3439 3540 3467 3525 3450 3627 3532 3592 3625 3453 3577 3447 3542 3474 3506 3459 3626 3524 3584 3628 3461 3586 3428 3547 3470 3524 3449 3631 3529 3592 3633 3447 3601 3438 3555 3478 3513 3455 3634 3541 3591 3633 3483 3607 3451 3561 3465 3524 3463 3622 3538 3597 3638 3456 3591 3430 3555 3445 3511 3459 3636 3541 3603 3635 3455 3597 3446 3562 3434 3497 3461 3647 3541 3611 3634 3439 3590 3424 3560 3470 3510 3463 3650 3541 3596 3628 3465 3595 3454 3577 3449 3524 3448 3636 3541 3621 3636 3467 3603 3423 3571 3429 3506 3456 3645 3554 3614 3642 3459 3601 3425 3572 3466 3520 3467 3637 3549 3598 3638 3457 3598 3441 3567 3470 3509 3482 3655 3558 3611 3643 3448 3602 3452 3576 3483 3515 3483 3652 3552 3607 3641 3458 3593 3445 3578 3469 3523 3477 3651 3545 3617 3643 3477 3609 3451 3589 3471 3512 3483 3639 3555 3608 3638 3469 3599 3443 3590 3468 3532 3504 3648 3556 3618 3641 3477 3626 3448 3594 3460 3536 3507 3651 3561 3625 3639 3484 3605 3448 3598 3495 3535 3492 3649 3587 3615 3653 3471 3603 3457 3596 3480 3536 3516 3645 3546 3609 3652 3476 3615 3442 3607 3491 3566 3494 3679 3572 3616 3655 3451 3617 3454 3591 3491 3547 3503 3662 3575 3624 3656 3477 3621 3450 3600 3496 3539 3510 3665 3581 3621 3646 3483 3628 3465 3583 3494 3550 3509 3645 3565 3652 3655 3462 3640 3455 3586 3503 3546 3514 3657 3559 3631 3677 3491 3627 3473 3587 3526 3554 3508 3665 3578 3659 3682 3495 3635 3458 3606 3470 3563 3502 3326 3579 3649 3678 3492 3633 3472 3618 3491 3548 3516 3450 3578 3649 3571 3485 3639 3469 3603 3504 3557 3513 3576 3570 3647 2988 3491 3649 3461 3625 3482 3563 3518 3211 3572 3654 2993 3489 3651 3485 3614 3507 3555 3497 3220 3586 3665 3234 3515 3653 3470 3617 3497 3562 3515 3102 3584 3646 2649 3501 3649 3479 3615 3522 3565 3522 3116 3598 3652 2414 3504 3635 3477 3614 3471 3568 3525 2763 3597 3658 2414 3509 3642 3470 3629 3520 3586 3522 2757 3605 3671 2301 3517 3632 3500 3625 3535 3554 3499 2179 3597 3662 2066 3518 3631 3517 3634 3537 3570 3521 2530 3605 3662 2069 3519 3630 3471 3648 3522 3568 3550 2296 3620 3674 2079 3527 3636 3509 3609 3541 3579 3502 1961 3605 3679 1724 3524 3626 3469 3640 3529 3573 3534 1955 3614 3555 1720 3532 3644 3480 3645 3535 3577 3534 1492 3604 3440 1727 3534 3645 3478 3630 3457 3584 3536 1717 3601 3100 1501 3517 3659 3497 3627 3544 3591 3535 1837 3621 2752 1605 3522 3666 3511 3641 3539 3601 3545 1724 3605 2637 1502 3515 3640 3472 3663 3547 3591 3536 1499 3609 2414 1036 3526 3651 3497 3636 3462 3598 3553 1599 3621 2182 1381 3528 3673 3518 3628 3471 3600 3557 1497 3610 2186 1158 3531 3447 3499 3632 3493 3592 3560 1377 3610 2069 1037 3533 3106 3490 3657 3497 3617 3559 1376 3625 1940 1155 3542 3107 3528 3651 3553 3600 3564 1265 3617 1837 1042 3536 2638 3525 3644 3484 3601 3570 1152 3626 1721 1039 3535 2421 3530 3643 3499 3606 3562 1148 3648 1611 814 3550 2197 3505 3647 3527 3617 3554 1151 3621 1376 923 3558 2196 3525 3649 3577 3606 3561 812 3627 1379 808 3563 2184 3544 3663 3518 3618 3572 813 3642 1373 811 3556 2519 3543 3644 3565 3610 3565 925 3630 1263 698 3560 1946 3519 3654 3524 3626 3570 922 3636 1141 586 3568 2069 3535 3648 3539 3638 3569 696 3637 1144 589 3576 2074 3521 3655 3519 3625 3572 813 3634 1144 587 3573 1840 3529 3662 3545 3632 3572 695 3665 1036 589 3587 1837 3535 3664 3572 3639 3572 582 3652 1034 586 3582 1841 3510 3561 3578 3621 3582 696 3660 1032 474 3584 1729 3556 3549 3580 3625 3584 690 3656 924 473 3591 1618 3533 3435 3614 3633 3575 700 3534 924 474 3590 1604 3542 3343 3584 3633 3574 590 3635 920 475 3586 1382 3557 2884 3524 3634 3598 475 3424 806 473 3589 1269 3531 2986 3508 3637 3585 472 3420 800 474 3592 1263 3562 2761 3595 3637 3590 470 3412 803 355 3600 1153 3573 2407 3565 3635 3620 474 3636 805 360 3598 1031 3555 2294 3527 3638 3587 471 3186 689 362 3602 1032 3545 2523 3576 3633 3594 477 3084 580 360 3595 1036 3567 2075 3586 3641 3601 358 2862 580 363 3608 925 3570 1956 3548 3643 3601 363 2869 579 359 3586 919 3583 1955 3547 3652 3605 358 2758 579 361 3615 920 3603 1959 3517 3642 3620 361 2413 579 360 3579 810 3567 1953 3535 3651 3607 361 2409 578 362 3609 807 3562 1960 3545 3532 3610 357 2414 466 363 3611 696 3597 1724 3589 3313 3613 363 2294 467 357 3604 695 3560 1388 3602 3077 3622 361 2174 467 362 3610 697 3582 1504 3601 3205 3623 358

Tree=0
num_leaves=10
num_cat=0
split_feature=0 0 10 1 0 0 1 0 0
split_gain=286.349 28.5811 77.4276 7.28934 3.55271e-15 1.77636e-15 1.77636e-15 2.22045e-16 1.11022e-16
threshold=15.653638205750847 4.8026721623766138 0.039016115000000011 1.3350787879310906 3.5269478574725786 1.6183933452200734 1.4543222965502409 8.3828265918496125 4.0952531208864054
decision_type=2 2 2 2 2 2 2 2 2
left_child=1 4 -3 7 5 6 -1 -4 -6
right_child=-2 2 3 -5 8 -7 -8 -9 -10
leaf_value=-3.9536364422008425 -2.6945684136334664 -3.1842059802985578 -3.9536364422008425 -3.7228073036301574 -3.9536364422008425 -3.9536364422008425 -3.9536364422008425 -3.9536364422008425 -3.9536364422008425
leaf_weight=8.1445522308349716 0.47654294967651267 0.45488190650939886 1.0397300720214846 0.43322086334228505 0.62817025184631237 9.8774356842040998 0.56318712234497148 0.58484816551208485 0.43322086334228516
leaf_count=376 22 21 48 20 29 456 26 27 20
internal_value=-3.90725 -3.93333 -3.77454 -3.90504 -3.95364 -3.95364 -3.95364 -3.95364 -3.95364
internal_weight=0 22.1592 2.51268 2.0578 19.6466 18.5852 8.70774 1.62458 1.06139
internal_count=1045 1023 116 95 907 858 402 75 49
is_linear=0
shrinkage=1


Tree=1
num_leaves=6
num_cat=0
split_feature=6 8 0 0 0
split_gain=50.1946 83.1753 4.44089e-16 1.11022e-16 1.11022e-16
threshold=72000.000000000015 283148.90738263162 2.5515655246585043 15.653638205750847 8.3216671235021398
decision_type=2 2 2 2 2
left_child=2 -2 -1 4 -4
right_child=1 -3 3 -5 -6
leaf_value=-5.8987452883987475 -3.6303283535568895 -5.8987452883987475 -5.8987452883987475 -5.8987452883987475 -5.8987452883987475
leaf_weight=2.1978827109560379 0.066125411074608453 0.10391136026009917 0.69904005993157614 0.069274240173399448 0.15429262584075332
leaf_count=698 21 33 222 22 49
internal_value=-5.85316 -5.01658 -5.89875 -5.89875 -5.89875
internal_weight=0 0.170037 3.12049 0.922607 0.853333
internal_count=1045 54 991 293 271
is_linear=0
shrinkage=1


Tree=2
num_leaves=3
num_cat=0
split_feature=0 0
split_gain=30.787 2.22045e-16
threshold=12.759031636091914 1.6246123771020418
decision_type=2 2
left_child=1 -1
right_child=-2 -3
leaf_value=-6.9972702468450914 -5.4124203786599043 -6.9972702468450914
leaf_weight=0.4311659652739761 0.031548729166388623 0.63623270485550165
leaf_count=410 30 605
internal_value=-6.95177 -6.99727
internal_weight=0 1.0674
internal_count=1045 1015
is_linear=0
shrinkage=1


Tree=3
num_leaves=18
num_cat=0
split_feature=6 11 9 6 9 6 8 8 9 6 8 0 9 0 0 0 0
split_gain=138.558 147.937 119.644 93.3955 46.653 28.9225 28.3867 78.9447 21.8951 4.3347 31.7679 0.678767 5.1937 0.279915 1.42109e-14 7.10543e-15 1.77636e-15
threshold=0.2950000000000001 3.1800000000000002 0.0019159893619424852 -0.0050124999999999996 1.0771119296774157e-08 -3.9999999999999993e-07 6.9727165047650148 61.080956052428689 37318.538624422523 0.020000000000000004 1.4966811130364155 1.7247866737418749 0.29114776552952487 1.8383699701449661 1.6583708891831912 1.3954267536668807 1.7864773682907331
decision_type=2 2 2 2 2 2 2 2 2 2 2 2 2 2 2 2 2
left_child=2 -2 3 -1 -5 -6 -3 -8 -9 11 -11 14 -13 -7 15 -4 -12
right_child=1 6 9 4 5 13 7 8 -10 10 16 12 -14 -15 -16 -17 -18
leaf_value=-1.6850759179158725 -1.6850759179158723 -2.0841040114913576 -2.0841040114913576 -1.7990839446517251 -1.8845899647036148 -2.0641526068125833 -1.7197740130093924 -2.0841040114913576 -1.9045413693823892 -1.8940906335982695 -2.0841040114913576 -2.0080986603341224 -2.0841040114913576 -2.0841040114913576 -2.0841040114913576 -2.0841040114913576 -2.0841040114913576
leaf_weight=3.13261151313782 5.2627873420715359 5.3880918025970486 31.952637434005737 2.6313936710357657 2.506089210510253 2.5060892105102521 2.8820025920867902 5.2627873420715332 2.5060892105102539 2.6313936710357693 4.3856561183929434 2.6313936710357693 15.41244864463806 5.8893096446990967 4.5109605789184561 22.429498434066772 9.0219211578369123
leaf_count=25 42 43 255 21 20 20 23 42 20 21 35 21 123 47 36 179 72
internal_value=-2.03179 -1.9151 -2.05446 -1.93109 -1.98804 -2.03365 -1.99058 -1.94327 -2.02618 -2.07658 -2.05293 -2.0815 -2.07302 -2.07815 -2.0841 -2.0841 -2.0841
internal_weight=0 21.3018 109.641 16.6655 13.5329 10.9015 16.039 10.6509 7.76888 92.9759 16.039 76.9369 18.0438 8.3954 58.8931 54.3821 13.4076
internal_count=1045 170 875 133 108 87 128 85 62 742 128 614 144 67 470 434 107
is_linear=0
shrinkage=1


Tree=4
num_leaves=6
num_cat=0
split_feature=1 8 0 0 0
split_gain=20.5529 213.522 4.44089e-16 5.55112e-17 5.55112e-17
threshold=0.67537052293736233 1.1097352936515765 4.9477284810559015 11.451713761813997 8.4328213715416727
decision_type=2 2 2 2 2
left_child=1 -1 -2 4 -4
right_child=2 -3 3 -5 -6
leaf_value=-3.0015890194593493 -5.3880073286314429 -5.3880073286314429 -5.388007328631442 -5.388007328631442 -5.388007328631442
leaf_weight=0.10475950315594662 4.0070509957149625 0.89045577682554722 0.21475698146969069 0.10475950315594673 0.15190127957612276
leaf_count=20 765 170 41 20 29
internal_value=-5.34233 -5.13681 -5.38801 -5.38801 -5.38801
internal_weight=0 0.995215 4.47847 0.471418 0.366658
internal_count=1045 190 855 90 70
is_linear=0
shrinkage=1


Tree=5
num_leaves=13
num_cat=0
split_feature=11 6 0 1 9 9 1 0 8 9 0 0
split_gain=585.625 182.092 52.1584 9.892 12.0744 6.61796 5.15701 0.603535 0.268531 1.34352 5.68434e-14 2.84217e-14
threshold=14.000000000000002 42.500000000000007 0.44491840273637939 0.21013819212679 20.480758770317426 0.035938048917267047 1.1123699517323848 1.8383699701449661 17.7380952025844 13.601148399672743 3.0378260705958051 8.4328213715416727
decision_type=2 2 2 2 2 2 2 2 2 2 2 2
left_child=5 2 -2 4 -4 11 -7 -3 10 -10 -5 -1
right_child=1 7 3 8 -6 6 -8 -9 9 -11 -12 -13
leaf_value=-1.2581176431720267 -1.2190104563937916 -1.2366086904439975 -1.1556940587528393 -1.0430281158917332 -1.055680441025868 -1.1833038945527943 -1.2461682249897883 -1.2581176431720267 -1.0723585059754097 -1.0430281158917332 -1.0430281158917332 -1.2581176431720267
leaf_weight=125.76158936321735 5.1141496598720542 4.6492269635200492 4.8816883116960508 22.548750773072243 7.9036858379840851 5.3466110080480567 8.3686085343360883 10.925683364272116 5.1141496598720577 16.504755720496178 16.73721706867218 9.0659925788640958
leaf_count=541 22 20 21 97 34 23 36 47 22 71 72 39
internal_value=-1.19287 -1.09548 -1.0646 -1.05388 -1.09387 -1.25475 -1.22166 -1.2517 -1.04549 -1.04997 -1.04303 -1.25812
internal_weight=0 94.3793 78.8044 73.6902 12.7854 148.543 13.7152 15.5749 60.9049 21.6189 39.286 134.828
internal_count=1045 406 339 317 55 639 59 67 262 93 169 580
is_linear=0
shrinkage=1


Tree=6
num_leaves=6
num_cat=0
split_feature=9 7 0 0 0
split_gain=171.208 457.201 3.55271e-15 1.77636e-15 1.11022e-16
threshold=0.00092749459829201126 6.748780500000002e-07 11.451713761813997 6.6936956037722002 8.6550009117957334
decision_type=2 2 2 2 2
left_child=1 -1 3 -2 -5
right_child=2 -3 -4 4 -6
leaf_value=-4.2253447619587519 -4.2253447619587527 -2.2154039335696822 -4.2253447619587519 -4.2253447619587519 -4.2253447619587519
leaf_weight=0.97846993431449181 14.610712070018048 0.39802166819572449 0.3482689596712597 0.64678521081805307 0.34826895967125893
leaf_count=59 881 24 21 39 21
internal_value=-4.17918 -3.64416 -4.22534 -4.22534 -4.22534
internal_weight=0 1.37649 15.954 15.6058 0.995054
internal_count=1045 83 962 941 60
is_linear=0
shrinkage=1


Tree=7
num_leaves=13
num_cat=0
split_feature=6 0 0 8 6 9 7 7 6 11 8 7
split_gain=180.74 164.819 47.9172 49.1801 67.0317 27.947 3.21822 10.8904 2.529 5.51896 2.48371 0.347645
threshold=-4.6599999999999993 0.44491840273637939 1.3009013824194617 17.207173878291719 0.14300000000000004 37318.538624422523 0.00015276269500000004 0.028767115000000003 0.020000000000000004 143.50000000000003 0.017061789661172753 113800.00000000001
decision_type=2 2 2 2 2 2 2 2 2 2 2 2
left_child=-1 -2 3 4 -3 6 -4 10 9 -9 -8 -10
right_child=1 2 5 -5 -6 -7 7 8 11 -11 -12 -13
leaf_value=-2.0931520376783008 -2.0864839230250984 -2.1952657150145942 -2.6065968659748755 -2.6065968659748755 -2.6065968659748755 -2.38410410704636 -2.5430275062810139 -2.5131125134839025 -2.6065968659748755 -2.6065968659748755 -2.4552412476561574 -2.5867314410705435
leaf_weight=2.0450103580951682 1.7303933799266804 2.6742443144321433 39.484430760145187 3.2248240262269974 1.5730848908424375 1.5730848908424366 1.5730848908424406 2.6742443144321468 17.618550777435306 3.8540579825639725 1.6517391353845594 2.5169358253478995
leaf_count=26 22 34 502 41 20 20 20 34 224 49 21 32
internal_value=-2.55732 -2.56917 -2.57982 -2.45938 -2.34761 -2.5925 -2.59723 -2.58485 -2.59535 -2.5683 -2.49806 -2.60411
internal_weight=0 80.1487 78.4183 7.47215 4.24733 70.9461 69.373 29.8886 26.6638 6.5283 3.22482 20.1355
internal_count=1045 1019 997 95 54 902 882 380 339 83 41 256
is_linear=0
shrinkage=1


Tree=8
num_leaves=9
num_cat=0
split_feature=6 9 9 6 9 0 0 0
split_gain=356.171 130.693 56.1856 305.408 0.580136 7.10543e-15 8.88178e-16 8.88178e-16
threshold=122000.00000000001 37318.538624422523 0.0020075562891784704 2.9200000000000004e-06 0.0020188959423592247 9.52009182999101 8.4328213715416727 2.3345195560022929
decision_type=2 2 2 2 2 2 2 2
left_child=2 -2 3 6 -4 -6 7 -1
right_child=1 -3 4 -5 5 -7 -8 -9
leaf_value=-2.9056509531294434 -2.0657609141297772 -2.7376729453295106 -2.8756548803080269 -2.1303678402066746 -2.9056509531294434 -2.9056509531294434 -2.9056509531294434 -2.9056509531294434
leaf_weight=2.6789221353828889 1.8454796932637685 1.1906320601701734 1.666884884238242 1.5478216782212255 47.565750803798437 1.3096952661871899 2.2026693113148212 2.2026693113148212
leaf_count=45 31 20 28 26 799 22 37 37
internal_value=-2.85743 -2.32926 -2.88453 -2.76663 -2.90466 -2.90565 -2.90565 -2.90565
internal_weight=0 3.03611 59.1744 8.63208 50.5423 48.8754 7.08426 4.88159
internal_count=1045 51 994 145 849 821 119 82
is_linear=0
shrinkage=1


Tree=9
num_leaves=9
num_cat=0
split_feature=7 6 9 6 11 0 0 0
split_gain=713.004 91.6879 18.7193 79.0706 13.0778 1.63309 1.13687e-13 5.68434e-14
threshold=-2.0353689999999999e-07 -4.6599999999999993 0.010792356584211503 2.7425000000000002 9.0000000000000007e-07 1.6721358773293338 1.6456513323792776 3.6352633809253745
decision_type=2 2 2 2 2 2 2 2
left_child=1 -1 3 4 -2 6 -3 -4
right_child=2 5 7 -5 -6 -7 -8 -9
leaf_value=-1.0268231383649831 -0.95008172254823053 -0.83496959882310184 -1.0268231383649831 -0.83496959882310184 -1.0268231383649831 -0.86374762975438402 -0.83496959882310184 -1.0268231383649831
leaf_weight=6.7760021686553946 6.5153867006301871 71.929869174957275 90.954798340797424 7.0366176366806021 37.528627395629883 5.2123093605041495 19.024929165840149 27.36462414264679
leaf_count=26 25 276 349 27 144 20 73 105
internal_value=-0.952836 -0.849055 -1.0159 -0.990606 -1.01547 -0.836529 -0.83497 -1.02682
internal_weight=0 102.943 169.4 51.0806 44.044 96.1671 90.9548 118.319
internal_count=1045 395 650 196 169 369 349 454
is_linear=0
shrinkage=1


Tree=10
num_leaves=9
num_cat=0
split_feature=1 7 0 0 0 0 0 1
split_gain=22.8628 23.7727 1.11022e-16 1.11022e-16 1.11022e-16 1.11022e-16 1.11022e-16 1.11022e-16
threshold=1.6421291365490391 0.028957930000000003 8.4683566816443179 7.5011322815161501 4.9477284810559015 3.4067670253074067 3.1125965480035998 1.581117730826614
decision_type=2 2 2 2 2 2 2 2
left_child=2 -2 3 4 5 6 7 -1
right_child=1 -3 -4 -5 -6 -7 -8 -9
leaf_value=-6.9972702468450914 -4.619995444567353 -6.9972702468450887 -6.9972702468450905 -6.9972702468450896 -6.9972702468450905 -6.9972702468450905 -6.9972702468450896 -6.9972702468450905
leaf_weight=0.7803052347153423 0.021032486110925785 0.021032486110925674 0.063097458332777023 0.025238983333110809 0.049426342360675335 0.056787712499499321 0.031548729166388512 0.050477966666221619
leaf_count=742 20 20 60 24 47 54 30 48
internal_value=-6.95177 -5.80863 -6.99727 -6.99727 -6.99727 -6.99727 -6.99727 -6.99727
internal_weight=0 0.042065 1.05688 0.993785 0.968546 0.91912 0.862332 0.830783
internal_count=1045 40 1005 945 921 874 820 790
is_linear=0
shrinkage=1


Tree=11
num_leaves=31
num_cat=0
split_feature=9 0 0 9 0 1 0 11 8 8 0 6 6 6 1 9 6 8 9 7 8 7 0 8 1 1 8 9 8 0
split_gain=103.882 116.493 8.75478 21.8735 0.000764885 2.60212e-05 3.95352e-06 1.89431e-07 1.45183e-07 8.37672e-08 7.27027e-08 4.21326e-08 8.81202e-08 6.57366e-08 4.12289e-08 1.59544e-08 7.58411e-09 1.59016e-08 8.52181e-09 9.82809e-09 3.77273e-09 3.35739e-09 7.26005e-09 2.64828e-09 2.1586e-09 1.44976e-09 1.2896e-09 5.89493e-10 3.94179e-10 2.23112e-10
threshold=4.9950095688312864e-07 8.8527721447411896 4.8026721623766138 0.012049328868455739 15.653638205750847 1.2968256059984637 1.884947361567306 0.042390000000000004 0.30401898482764655 0.035314269543296882 1.6960486500318817 122000.00000000001 475000.00000000006 6.9465000000000012 0.47003700596971704 0.0019946461645259793 0.14300000000000004 10.380617822980387 0.0051571381583422754 1.1514620000000002 -0.26705349355534835 4.6028590000000014 2.5170097225067605 17.548785602117857 1.6017279820812191 0.21013819212679 2.2397965730670726 14.354729100056394 -0.26555989873082303 1.650845975684591
decision_type=2 2 2 2 2 2 2 2 2 2 2 2 2 2 2 2 2 2 2 2 2 2 2 2 2 2 2 2 2 2
left_child=1 6 7 -4 5 14 -1 10 9 -9 15 13 -13 16 -5 -2 17 -10 -18 -20 -17 26 -23 -19 28 -25 -21 -27 -22 -30
right_child=2 -3 3 4 -6 -7 -8 8 11 -11 -12 12 -14 -15 -16 20 18 23 19 21 24 22 -24 25 -26 27 -28 -29 29 -31
leaf_value=-0.046335663745312713 -0.04634142836264956 0.74807424586550075 0.22350845161644572 -0.046353825307617558 -0.048552033601471312 -0.046774992880057972 -0.046545507498282963 -0.046346346291613834 -0.0463469024942069 -0.046375718903510325 -0.046313508627500916 -0.04631187342745216 -0.04634330406082629 -0.046357116725962252 -0.046334450889470136 -0.046335064235591694 -0.046343736570490346 -0.046335289394130917 -0.046329222835823025 -0.046340835816079159 -0.046332567568455316 -0.04632995698810119 -0.046339367535093545 -0.046341861120998848 -0.046327532026911526 -0.046339762604326672 -0.046337789712894123 -0.046337995807126241 -0.04633118039652287 -0.046329993130985236
leaf_weight=0.49162927456200367 0.41286804899573848 0.94155134260654449 1.1089769527316087 0.41834172978997253 0.59129653126001347 0.48251274228095997 0.41302497498691082 0.5603832583874454 0.7476590126752839 0.42821812443435192 0.58032794483005989 0.41968651860952366 0.47584439814090729 0.52472165040671814 0.79909935407340527 0.61516352184116829 0.43470964767038855 0.47167736850678954 0.42785052210092578 0.45397899672389064 0.49080202169716258 0.40779648162424553 0.41202901303768158 0.47514928132295642 0.42708005756139744 0.84506706334650505 1.4808528758585451 1.0697449278086422 5.2069294732064018 0.42824748158454884
leaf_count=24 20 15 36 20 9 17 18 27 36 20 29 21 23 25 39 30 21 23 21 22 24 20 20 23 21 41 72 52 255 21
internal_value=0 0.358761 -0.0322906 0.0412237 -0.047003 -0.0464643 -0.0464315 -0.0463362 -0.0463409 -0.0463591 -0.0463306 -0.0463388 -0.0463286 -0.04634 -0.0463411 -0.0463319 -0.0463388 -0.0463404 -0.0463372 -0.0463363 -0.0463313 -0.0463374 -0.0463347 -0.0463387 -0.046331 -0.0463394 -0.0463385 -0.0463388 -0.0463312 -0.0463311
internal_weight=0 1.84621 21.197 3.40023 2.29125 1.69995 0.904654 17.7968 9.63537 0.988601 8.16142 8.64677 0.895531 7.75124 1.21744 7.58109 7.22652 3.6093 3.61722 3.18251 7.16822 2.75466 0.819825 2.86164 6.55306 2.38996 1.93483 1.91481 6.12598 5.63518
internal_count=1045 57 988 121 85 76 42 867 467 47 400 420 44 376 59 371 351 175 176 155 351 134 40 139 321 116 94 93 300 276
is_linear=0
shrinkage=0.05


Tree=12
num_leaves=31
num_cat=0
split_feature=7 8 8 11 8 8 0 1 7 9 7 1 7 0 9 8 0 9 10 9 7 7 1 0 8 7 1 9 8 1
split_gain=10.6154 15.7992 1.26234e-05 6.27349e-10 3.82922e-10 4.33096e-10 2.68501e-10 1.80971e-10 1.02104e-10 2.66261e-10 2.59401e-10 3.25548e-11 3.54683e-11 1.63661e-11 2.36379e-11 1.26896e-11 2.52968e-11 1.51571e-11 1.45913e-11 2.67674e-11 9.94871e-12 1.88933e-11 9.70483e-12 6.54454e-12 4.29473e-12 2.89357e-12 2.76965e-12 1.95977e-12 1.57652e-13 6.32827e-14
threshold=47471.192400000007 277259.94174590945 281742.3103227418 0.042390000000000004 0.30401898482764655 0.035314269543296882 9.52009182999101 0.78789748021013317 6.748780500000002e-07 0.00092749459829201126 3.247076000000001e-08 0.18975184827145347 45.348525000000002 1.6721358773293338 0.0020126529125611128 0.89927800562516114 1.469214481590557 1.9914221362182878 3.4481285000000006 0.028265221957544589 4.9907250000000003 7.1532330000000011 1.2991027992806101 0.44491840273637939 2.1832160629389947 -0.30013139999999994 0.21013819212679 0.0020210043833331862 17.666926778514767 1.5687879928318569
decision_type=2 2 2 2 2 2 2 2 2 2 2 2 2 2 2 2 2 2 2 2 2 2 2 2 2 2 2 2 2 2
left_child=3 -2 -3 7 5 -5 11 -1 10 -10 13 -6 15 14 -9 -13 17 -17 -18 -20 24 -22 -11 -19 -21 -16 -25 -27 -26 -29
right_child=1 2 -4 4 6 -7 -8 8 9 22 -12 12 -14 -15 25 16 18 23 19 20 21 -23 -24 26 28 27 -28 29 -30 -31
leaf_value=-0.045575187722731308 0.43666478102643258 -0.046643571130533495 -0.046061194918805802 -0.045579164909814729 -0.045579984281844448 -0.045584062425578234 -0.045575737426325341 -0.045576850689735354 -0.045573935317383525 -0.04557846745173532 -0.045580792318935588 -0.045578189190622981 -0.045579859393581917 -0.045578557189770788 -0.045578166465461256 -0.045580042833159085 -0.045579530194141467 -0.045579582197630059 -0.045577841304894562 -0.045578328203875397 -0.045579867475177005 -0.04557872296587312 -0.045577584613389205 -0.045579181200920429 -0.045578761373277182 -0.04557757830558503 -0.045578767061147808 -0.045577841304895089 -0.045578849786960488 -0.045577787665079111
leaf_weight=0.066726242192090335 0.3103494478855281 0.19128089584410191 0.18118686717934906 0.10194379952736188 0.08749830862507213 0.081014839233830571 0.064122937386855372 0.064747381955384986 0.0574457871261983 0.065617703599855304 0.078956194454803952 0.059511404950171598 0.10553456470370282 0.071630072081461438 0.062481031054630431 0.060399630339815991 0.060160428285598755 0.063195172464475036 0.077158617321401834 0.062560906168073416 0.060321497963741422 0.089647517539560795 0.059225796721875668 0.083992270519956946 0.31989749637432396 0.079956590663642135 0.077735670376569033 0.77158617321401834 0.059835934778675437 0.059326919494196773
leaf_count=23 12 7 36 34 29 26 22 22 20 22 26 20 35 24 21 20 20 21 26 21 20 30 20 28 107 27 26 260 20 20
internal_value=0 0.173181 -0.0463603 -0.0455785 -0.0455792 -0.0455813 -0.0455789 -0.0455777 -0.0455779 -0.0455768 -0.045578 -0.0455791 -0.045579 -0.0455778 -0.0455778 -0.0455789 -0.0455789 -0.0455793 -0.0455788 -0.0455787 -0.0455788 -0.0455792 -0.045578 -0.0455792 -0.0455787 -0.0455778 -0.045579 -0.0455778 -0.0455788 -0.0455778
internal_weight=0 0.682817 0.372468 2.95223 1.51453 0.182959 1.33157 1.4377 1.37097 0.182289 1.18868 1.26745 1.17995 1.10973 1.0381 1.07442 1.01491 0.285323 0.729582 0.669422 0.592263 0.149969 0.124844 0.224923 0.442294 0.973351 0.161728 0.91087 0.379733 0.830913
internal_count=1045 55 43 990 505 60 445 485 462 62 400 423 394 374 350 359 339 95 244 224 198 50 42 75 148 328 54 307 127 280
is_linear=0
shrinkage=0.05


Tree=13
num_leaves=31
num_cat=0
split_feature=9 2 0 0 11 8 8 9 6 6 6 8 8 11 9 9 0 9 0 0 10 10 0 9 9 10 7 7 0 9
split_gain=7.4538 22.7848 7.237e-07 2.14827e-07 2.26963e-11 1.4724e-11 1.491e-11 8.35815e-12 3.00898e-12 1.07572e-11 6.65623e-12 1.85837e-12 1.20737e-12 2.53808e-12 2.4899e-12 1.39377e-12 3.94074e-13 9.38194e-13 3.4972e-13 5.86142e-13 3.87995e-13 6.86534e-13 5.54473e-13 1.98869e-13 1.44385e-13 1.00239e-13 9.43134e-14 6.63636e-14 1.5106e-14 8.90954e-15
threshold=4.3293422221555274e-06 2467.0000000000005 12.759031636091914 15.653638205750847 0.042390000000000004 0.30401898482764655 0.035314269543296882 0.0009768304416422533 122000.00000000001 475000.00000000006 6.9465000000000012 2.8908872256354206e-07 1.4966811130364155 4.5225000000000009 0.039614987336920114 0.26597149848930873 1.6721358773293338 0.0015061650865017119 0.44491840273637939 0.48350864770177709 34.500000000000007 64.687655000000021 1.359621541475138 0.68792044843530398 0.0020188959423592247 240.77755000000005 -0.30013139999999994 4.2943445000000011 2.707232461152222 0.002027977299637961
decision_type=2 2 2 2 2 2 2 2 2 2 2 2 2 2 2 2 2 2 2 2 2 2 2 2 2 2 2 2 2 2
left_child=1 -1 4 11 7 6 -6 -2 10 -10 12 -3 14 -14 -7 -15 24 -18 -17 -20 22 -22 -21 -24 -9 28 -26 -25 -23 -28
right_child=2 3 -4 -5 5 8 -8 16 9 -11 -12 -13 13 15 -16 18 17 -19 19 20 21 25 23 27 26 -27 29 -29 -30 -31
leaf_value=1.5098093609838175 -0.045494521833128659 -0.045495214598664298 -0.045651996413806066 -0.045652267211493028 -0.045496056606157159 -0.045496052276487134 -0.045497639129629425 -0.045495472265941757 -0.045494685972223038 -0.045496173354691305 -0.045496765649822801 -0.045495891467843309 -0.04549649142965545 -0.04549557496760219 -0.045495269901643341 -0.045496149066248881 -0.045495466375800153 -0.045495910033063386 -0.045495720136440668 -0.04549616321405861 -0.045496265130439556 -0.045495883257529054 -0.045496033591720247 -0.045495883257530942 -0.045495682601546301 -0.04549604297922652 -0.045495541044263427 -0.045495786552769459 -0.045495944014584767 -0.045495574967603786
leaf_weight=0.032146613753866515 0.019289609743281977 0.020624255179427564 0.080437416210770607 0.047426238190382719 0.033080170629546046 0.021054291981272399 0.027058605570346117 0.034600920393131673 0.020362136070616543 0.030163870076648891 0.025481883087195456 0.019949395093135536 0.021272005746141076 0.025768296793103218 0.019670051638968289 0.022110555088147521 0.020757155027240515 0.02797723317053169 0.026850417954847217 0.021107560605742037 0.026198819512501359 0.01997028011828661 0.021044731605798006 0.11682613869197667 0.020866592414677143 0.024058348848484457 0.020795549266040325 0.02091737522277981 0.020999393309466541 0.26462058629840612
leaf_count=21 20 21 17 10 33 21 26 35 21 30 25 20 21 26 20 22 21 28 27 21 26 20 21 117 21 24 21 21 21 267
internal_value=0 0.370583 -0.045508 -0.04558 -0.0454958 -0.045496 -0.0454968 -0.0454955 -0.0454959 -0.0454956 -0.045496 -0.0454955 -0.0454959 -0.045496 -0.0454957 -0.0454959 -0.0454956 -0.0454957 -0.045496 -0.0454959 -0.045496 -0.045496 -0.0454959 -0.0454959 -0.0454956 -0.045496 -0.0454956 -0.0454959 -0.0454959 -0.0454956
internal_weight=0 0.120147 1.03334 0.0879999 0.952903 0.543995 0.0601388 0.408908 0.483856 0.050526 0.43333 0.0405737 0.407848 0.367124 0.0407243 0.345852 0.389618 0.0487344 0.320084 0.297973 0.271123 0.0912268 0.179896 0.158788 0.340884 0.065028 0.306283 0.137744 0.0409697 0.285416
internal_count=1045 72 973 51 956 543 59 413 484 51 433 41 408 367 41 346 393 49 320 298 271 91 180 159 344 65 309 138 41 288
is_linear=0
shrinkage=0.05


Tree=14
num_leaves=31
num_cat=0
split_feature=7 11 7 6 11 7 9 8 9 9 8 2 8 11 1 0 1 7 1 8 0 8 0 0 9 1 9 8 0 0
split_gain=132.871 149.096 116.003 52.9626 48.0895 47.438 18.1097 3.62044 1.45277 0.606133 0.629031 0.268567 0.000460882 4.91111e-05 2.94056e-05 2.25713e-05 1.38389e-05 1.03063e-05 3.67396e-06 1.93373e-06 1.78783e-06 1.47873e-06 1.26727e-06 1.86277e-06 8.68053e-07 8.22914e-07 2.86402e-07 1.50401e-07 8.49528e-08 6.80176e-08
threshold=1.0000000180025095e-35 2.6400000000000001 0.028767115000000003 4.9715000000000016 5.1850000000000012e-06 64.938395000000014 37318.538624422523 0.017646833954729574 0.0019946461645259793 0.0016742779147676161 0.54065855138652597 2531.0000000000005 1.6423728345028341 0.052500000000000005 0.98061364449136723 1.9161337922556096 1.5530117305640563 1.2359775000000004 1.4345342481881629 8.9041917624833253 3.8567329366992582 -0.26705349355534835 0.44819247350008007 0.48350864770177709 20.480758770317426 1.6017279820812191 1.0330159594900594 -0.26555989873082303 1.650845975684591 1.9730058985665127
decision_type=2 2 2 2 2 2 2 2 2 2 2 2 2 2 2 2 2 2 2 2 2 2 2 2 2 2 2 2 2 2
left_child=8 2 4 12 -2 -5 15 11 -1 -4 -11 -6 -3 21 19 -7 17 -14 20 -15 26 -10 -21 -24 -25 27 -19 -23 -29 -28
right_child=1 3 9 5 7 6 -8 -9 13 10 -12 -13 16 14 -16 -17 -18 18 -20 22 -22 25 23 24 -26 -27 29 28 -30 -31
leaf_value=-0.013339005202003699 0.1716441432152867 -0.052579273250154782 0.23256820498749248 0.22088087991397054 -0.051790524974468038 -0.051723848904282083 0.10706760975634906 0.025364832537674055 -0.051843788584379685 0.27376149215997936 0.2455630810097732 -0.030921805741457531 -0.051972988420877698 -0.051913837976853283 -0.052050992242884432 -0.051936929298449702 -0.0520020859064102 -0.051851257623042268 -0.051819244575380619 -0.051907394023328224 -0.051911699028727054 -0.051823580529304136 -0.051827915648222471 -0.051866730716473353 -0.051899101627543368 -0.051782753961129829 -0.051866730216348168 -0.051812326933857823 -0.051802707304834009 -0.051875052608817113
leaf_weight=2.549010530114173 4.653760194778445 2.6851401999592808 4.3410490006208411 3.8034123182296735 4.3623878732323629 2.5755502432584763 2.8031111508607864 2.5657032206654549 3.684419371187686 3.0453046262264234 5.6414052248001099 2.384357325732708 2.4123784750700059 3.9533523023128572 3.0423080623149863 2.4018127098679543 2.4055310860276213 2.4981737136840847 3.7916587665677062 2.3949183970689765 2.6349355876445761 2.8457248136401168 2.3722699880599967 6.1972887292504293 3.1104042530059814 2.4779407903552046 5.9589311480522138 30.196010693907738 2.4838891848921767 4.1752903386950493
leaf_count=20 32 21 27 24 37 22 20 20 31 20 34 20 20 33 25 20 20 21 32 20 22 24 20 52 26 21 50 255 21 35
internal_value=0 0.0505828 0.140506 -0.0130513 0.0403982 0.076163 0.00541898 -0.02519 -0.0503421 0.247825 0.255449 -0.0444153 -0.0519582 -0.051845 -0.0519072 -0.0518267 -0.0518884 -0.0518756 -0.0518633 -0.0518829 -0.0518742 -0.0518135 -0.0518743 -0.0518675 -0.0518775 -0.0518106 -0.0518664 -0.0518126 -0.0518116 -0.0518702
internal_weight=0 65.1399 26.994 38.1459 13.9662 11.5839 7.78047 9.31245 65.3075 13.0278 8.68671 6.74675 26.562 62.7585 21.0705 4.97736 23.8769 21.4714 19.059 18.0282 15.2673 41.688 14.0749 11.68 9.30769 38.0036 12.6324 35.5256 32.6799 10.1342
internal_count=1045 497 190 307 109 86 62 77 548 81 54 57 221 528 176 42 200 180 160 151 128 352 118 98 78 321 106 300 276 85
is_linear=0
shrinkage=0.05


Tree=15
num_leaves=31
num_cat=0
split_feature=0 7 1 9 1 7 0 10 8 8 8 9 6 6 6 8 9 9 0 6 7 0 0 8 9 0 8 8 8 0
split_gain=12.1137 39.6443 6.42177 0.000330351 0.000308674 2.90886e-09 1.51981e-09 1.69707e-09 2.39799e-09 1.50554e-09 9.13081e-10 7.87836e-10 3.47965e-10 1.35812e-09 8.82113e-10 1.72162e-10 7.00899e-11 1.35925e-10 1.12544e-10 3.45959e-11 3.07577e-11 1.04641e-10 2.39501e-11 2.07361e-11 3.9745e-11 3.40405e-11 1.90624e-11 1.07441e-11 6.12094e-12 5.50918e-12
threshold=0.85871776394284427 0.00056219910000000013 0.23280154111451701 0.00092749459829201126 0.72292236009399191 6.748780500000002e-07 9.4403111451932187 0.039016115000000011 0.30401898482764655 1.6331500158173543e-07 0.036797040975719904 0.3111327761020764 122000.00000000001 475000.00000000006 6.9465000000000012 12.650569640559906 0.0051571381583422754 0.26597149848930873 1.4179621760872536 2.9200000000000004e-06 4.9907250000000003 3.1186945433988584 2.0552741603849882 -0.26555989873082303 0.010031554437925897 1.6516731534015585 2.1832160629389947 52.298510273441146 -0.00042707613186287677 2.6247684160300695
decision_type=2 2 2 2 2 2 2 2 2 2 2 2 2 2 2 2 2 2 2 2 2 2 2 2 2 2 2 2 2 2
left_child=1 15 -2 4 -4 9 7 11 10 -6 -9 19 14 -14 16 -1 -10 22 -19 23 26 29 -18 24 -5 -25 -20 -17 -27 -22
right_child=2 -3 3 6 5 -7 -8 8 12 -11 -12 -13 13 -15 -16 27 17 18 20 -21 21 -23 -24 25 -26 28 -28 -29 -30 -31
leaf_value=-0.045660520763747534 0.13408375760871358 0.87451126814692681 -0.047742578831163195 -0.045661551798062618 -0.045659148198689506 -0.045652963122725085 -0.045656101227074621 -0.045664430047397342 -0.045663299241735192 -0.045667528420748449 -0.045671114061831206 -0.045664652579449481 -0.045655922827797471 -0.045663410962177242 -0.045666393646922925 -0.045662889363992404 -0.045661425393765775 -0.045663778433169308 -0.045661243021779888 -0.045661250717623919 -0.045661536188695208 -0.045663685267595171 -0.045660390991355368 -0.045660373914890057 -0.045660282526712226 -0.045659945215246606 -0.045661957290363153 -0.04566223794127202 -0.04565939415000065 -0.045662050510700374
leaf_weight=0.15801588259637345 0.55104593141004432 0.16266078874468803 0.40128033608198155 0.09928244724869717 0.11283511063084006 0.10463371779769659 0.12566838553175319 0.10061030043289099 0.10511959996074427 0.10208187298849225 0.10381833743304014 0.11586687853559841 0.10143337631598104 0.15024069603532553 0.1269139409996568 0.14987967675551772 0.099212762899696716 0.10032958770170797 0.109043337870389 0.11399669246748079 0.10919187637045979 0.11032664822414517 0.12835395149886608 1.3278596508316698 0.16282492177560925 0.10344110568985343 0.65157492877915502 0.10957117844372988 0.098256045952439197 0.099521010648459196
leaf_count=32 28 5 8 20 23 22 26 20 21 20 20 23 21 30 25 30 20 20 22 23 22 22 26 269 33 21 131 22 20 20
internal_value=0 0.212344 -0.0278523 -0.0458296 -0.0468193 -0.0456598 -0.0456615 -0.0456617 -0.0456627 -0.0456631 -0.0456678 -0.0456606 -0.0456621 -0.0456604 -0.0456624 -0.0456618 -0.0456621 -0.045662 -0.0456622 -0.0456604 -0.045662 -0.0456624 -0.0456608 -0.0456604 -0.0456608 -0.0456603 -0.0456619 -0.0456626 -0.0456597 -0.0456618
internal_weight=0 0.580128 5.51476 4.96372 0.720831 0.319551 4.24289 4.11722 2.09569 0.214917 0.204429 2.02153 1.89126 0.251674 1.63959 0.417467 1.51267 1.40755 1.17999 1.90566 1.07966 0.31904 0.227567 1.79166 0.262107 1.52956 0.760618 0.259451 0.201697 0.208713
internal_count=1045 89 956 928 73 65 855 829 420 43 40 409 380 51 329 84 304 283 237 386 217 64 46 363 53 310 153 52 41 42
is_linear=0
shrinkage=0.05


Tree=16
num_leaves=31
num_cat=0
split_feature=11 6 0 0 9 9 1 0 0 0 0 10 9 10 6 1 9 7 1 7 9 7 6 1 7 1 0 1 9 1
split_gain=502.078 146.023 40.4424 7.49728 19.8742 6.21007 4.77779 0.626465 0.368479 1.25555 0.0507196 0.0082583 0.00517146 0.00190787 0.00125607 0.00109963 0.000905032 0.00106466 0.000521816 0.000253754 0.000810911 0.000794707 0.000131999 7.33722e-05 4.19323e-05 3.2675e-05 2.40429e-05 1.60495e-05 1.88012e-06 1.42109e-14
threshold=14.000000000000002 42.500000000000007 0.44491840273637939 0.97004786523837205 54.116936146358206 0.035938048917267047 1.1123699517323848 1.8383699701449661 2.2569963590994653 1.8190455025835059 9.7242055568287924 34.500000000000007 13.601148399672743 0.039938385000000007 0.2950000000000001 1.2005800184487685 4.2503440448664849 1.3034395000000003 0.78789748021013317 6.748780500000002e-07 0.00092749459829201126 3.247076000000001e-08 2.7425000000000002 1.4375816564954191 -0.0032614794999999996 1.2991027992806101 1.6721358773293338 1.6138125123392033 0.0020188959423592247 1.4921419701992182
decision_type=2 2 2 2 2 2 2 2 2 2 2 2 2 2 2 2 2 2 2 2 2 2 2 2 2 2 2 2 2 2
left_child=5 2 -2 4 -4 13 -7 -3 9 15 11 16 -13 18 -15 -5 17 -10 -1 21 -21 24 -16 -9 26 -22 27 28 -20 -30
right_child=1 7 3 8 -6 6 -8 23 10 -11 -12 12 -14 14 22 -17 -18 -19 19 20 25 -23 -24 -25 -26 -27 -28 -29 29 -31
leaf_value=-0.062632200494859902 -0.024832041761682577 -0.041206950101233375 0.0056580460654967572 0.13071027685579259 0.13046465951054068 0.0090365570838419652 -0.051718329331840229 -0.063385453050561785 0.13096894105981677 0.10190208176504523 0.13596913180861445 0.13281240056478114 0.13066153673288608 -0.064182174927230523 -0.063520710384095833 0.12981550436755915 0.12981550436755915 0.13004349919669886 -0.063124418630453316 -0.06238858795824203 -0.063287230415631876 -0.063748555485890715 -0.063209168795392942 -0.063652620203189333 -0.063003033783017873 -0.063105265766967719 -0.063267249659404654 -0.063057634995731124 -0.063155970249784005 -0.063155970249784005
leaf_weight=5.030677154660224 5.038558989763259 4.4760506600141516 4.8048013299703589 4.9892721027135911 9.4893488287925702 5.3679584860801688 8.1476082503795606 4.4612990170717222 4.984983682632449 5.2431508600711814 4.8945946395397177 5.4473376274108869 5.7388665974140167 7.2699615508317974 6.9401194900274259 11.0131379365921 14.016721010208128 8.2529738396406156 5.0996026098728171 4.3477898538112631 5.5646841675043088 5.84920310974121 6.6653820723295212 6.0613436251878738 4.8614757955074301 4.4319576621055603 4.4496171325445166 4.6482959985733023 48.817111849784851 14.867029517889021
leaf_count=23 22 20 20 20 38 23 36 20 20 21 20 22 23 32 31 44 56 33 23 20 25 26 30 27 22 20 20 21 220 67
internal_value=0 0.0868213 0.112505 0.121279 0.0885125 -0.0598317 -0.0275884 -0.0568747 0.128531 0.123137 0.131175 0.130565 0.131709 -0.063214 -0.0636516 0.130094 0.130096 0.130392 -0.0631294 -0.0631537 -0.0629586 -0.0631853 -0.0633681 -0.0635393 -0.0631455 -0.0632066 -0.0631544 -0.0631476 -0.0631536 -0.063156
internal_weight=0 98.9124 83.9137 78.8752 14.2942 142.358 13.5156 14.9987 64.581 21.2456 43.3355 38.4409 11.1862 128.843 20.8755 16.0024 27.2547 13.238 107.967 102.937 14.3444 88.5923 13.6055 10.5226 82.7431 9.99664 77.8817 73.432 68.7837 63.6841
internal_count=1045 406 339 317 58 639 59 67 259 85 174 154 45 580 93 64 109 53 487 464 65 399 61 47 373 45 351 331 310 287
is_linear=0
shrinkage=0.05


Tree=17
num_leaves=31
num_cat=0
split_feature=9 9 8 8 8 0 9 7 6 6 6 1 6 9 7 10 9 0 0 0 1 1 10 8 0 8 9 1 0 7
split_gain=60.3067 30.0501 0.000150399 5.65031e-08 9.91774e-08 4.05338e-08 2.68737e-08 1.606e-08 1.37796e-08 4.57877e-08 2.72588e-08 6.1032e-09 3.86873e-09 5.49542e-09 4.62535e-09 4.81265e-09 3.6102e-09 2.52609e-09 4.17969e-09 1.69698e-09 8.97336e-10 6.05536e-10 5.17218e-10 6.43644e-10 1.97301e-10 1.30937e-10 9.96225e-11 9.62521e-11 8.88178e-16 4.44089e-16
threshold=0.00092749459829201126 4.9950095688312864e-07 2.8908872256354206e-07 0.034540543530739841 0.30401898482764655 9.52009182999101 0.3111327761020764 2.4810845000000003e-08 122000.00000000001 475000.00000000006 6.9465000000000012 0.18975184827145347 0.14300000000000004 5.5254116835083211 0.77933865000000002 3.0061295000000006 0.26597149848930873 4.8026721623766138 1.6721358773293338 0.44491840273637939 1.6138125123392033 0.21013819212679 9.7569455000000023 6.0546509955959751 2.34005766936292 0.0031824204081100367 0.0020188959423592247 0.94104537160110746 1.6056016188094926 -0.0073410039999999991
decision_type=2 2 2 2 2 2 2 2 2 2 2 2 2 2 2 2 2 2 2 2 2 2 2 2 2 2 2 2 2 2
left_child=1 2 7 6 -5 8 17 -1 10 -10 11 -6 13 -13 -14 -16 -17 18 20 -15 25 -21 23 -18 -24 26 -2 -23 29 -28
right_child=3 -3 -4 4 5 -7 -8 -9 9 -11 -12 12 14 19 15 16 22 -19 -20 21 -22 27 24 -25 -26 -27 28 -29 -30 -31
leaf_value=-0.046104915939969515 -0.046118689480058789 0.28271638186508413 -0.047431230160375384 -0.046146932075491642 -0.046131252304328706 -0.046108073861891863 -0.046133458952062285 -0.046120636292710952 -0.046104975892078036 -0.046129408381550357 -0.046139141230637185 -0.046132162881287186 -0.046118249565815769 -0.04612905477689682 -0.046129336646711788 -0.046119555090756242 -0.046124510881539821 -0.046115547096397286 -0.046124223513673235 -0.046126875540115242 -0.046116853678366286 -0.046124615063626542 -0.04612461506362648 -0.046127388761643108 -0.04612318093679503 -0.04612054584934152 -0.046119555090756374 -0.046125530004458723 -0.046119555090756353 -0.046119555090756333
leaf_weight=0.32120612822473349 0.35909256525337596 2.3999587222933769 0.32425214722752571 0.55248068738728573 0.46081562712788571 0.33784597273915995 0.3668270744383334 0.32874391973018646 0.3212685054168104 0.47568121738731861 0.40176719799637783 0.38205125369131598 0.31202276609838042 0.33283447287976775 0.45981597155332599 0.42207742296159301 0.50385962799191453 0.37293896265327919 0.48785250633954991 0.44238502345979247 0.32698017917573441 1.3858241438865659 0.48818805068731308 0.31621731817722321 0.47140692174434662 0.31309879384934891 1.5788822118192904 0.36267987824976433 1.3131297603249548 1.5788822118192918
leaf_count=21 23 26 15 34 29 22 23 21 21 30 25 24 20 21 29 27 32 24 31 28 21 88 31 20 30 20 101 23 84 101
internal_value=0 0.187649 -0.0465517 -0.0461237 -0.0461265 -0.046125 -0.0461203 -0.0461129 -0.0461258 -0.0461196 -0.0461265 -0.0461257 -0.0461253 -0.0461266 -0.046124 -0.0461247 -0.0461237 -0.0461195 -0.0461198 -0.0461257 -0.0461194 -0.0461252 -0.0461247 -0.0461256 -0.0461239 -0.0461196 -0.0461195 -0.0461248 -0.0461196 -0.0461196
internal_weight=0 3.37416 0.974202 15.1269 8.42922 7.87674 6.69768 0.64995 7.5389 0.79695 6.74195 6.34018 5.87936 2.90577 2.97359 2.66157 2.20175 6.33086 5.95792 2.52372 5.47007 2.19089 1.77967 0.820077 0.959595 5.14309 4.82999 1.7485 4.47089 3.15776
internal_count=1045 83 57 962 534 500 428 42 478 51 427 402 373 184 189 169 140 405 381 160 350 139 113 52 61 329 309 111 286 202
is_linear=0
shrinkage=0.05


Tree=18
num_leaves=31
num_cat=0
split_feature=6 1 11 9 6 7 6 11 6 7 1 9 8 9 6 7 6 11 7 8 11 7 1 6 9 8 9 1 6 1
split_gain=106.026 58.8912 71.1854 31.8128 27.8043 8.1425 28.4841 34.7551 85.8665 1.79999 0.440786 8.09756e-05 5.77499e-05 3.54598e-05 2.33853e-06 2.29939e-06 3.13229e-06 2.02287e-06 9.78325e-07 7.08361e-07 7.07458e-07 6.67664e-07 5.74002e-07 4.02675e-07 1.71098e-07 1.38489e-07 1.66873e-07 1.14382e-07 5.85001e-08 1.04905e-08
threshold=-4.6599999999999993 0.31529783618325724 113.50000000000001 7.2793579116039044 1100000.0000000002 0.00015276269500000004 2.9200000000000004e-06 143.50000000000003 -1.9999999999999996e-07 0.016066665000000004 1.6285161228386593 1.4205008444322946e-07 0.54065855138652597 18531.152169428646 4.9715000000000016 1.3650505000000001e-07 -6.4999999999999981e-07 17.500000000000004 0.78136945000000013 12.170915358694691 3.1800000000000002 -0.0033741959999999999 0.19251278577200828 2.7425000000000002 14.002691510633758 -0.26555989873082303 0.010031554437925897 1.6053015555487427 -0.014999999999999998 0.91057267117781693
decision_type=2 2 2 2 2 2 2 2 2 2 2 2 2 2 2 2 2 2 2 2 2 2 2 2 2 2 2 2 2 2
left_child=-1 2 3 -2 5 11 7 8 -7 -8 12 -3 -11 14 17 16 21 18 -14 -18 -20 25 -4 29 -9 26 -13 28 -27 -22
right_child=1 4 22 -5 -6 6 9 24 -10 10 -12 15 13 -15 -16 -17 19 -19 20 -21 23 -23 -24 -25 -26 27 -28 -29 -30 -31
leaf_value=0.28674496464692506 0.064574879596266926 -0.049299844069581607 -0.049095206275016658 0.30632405413232244 0.18627966440077878 -0.030328346195702367 0.0046857724269650817 -0.049072729261717317 0.40701601668506182 -0.049375423451850586 -0.024684851854700048 -0.049043512124011757 -0.049006796520392006 -0.049295599899233385 -0.049087055484236149 -0.048963428479907915 -0.049093163965852241 -0.048986152285548909 -0.049078698758248093 -0.049050773427996443 -0.049045998052574535 -0.048987021777563866 -0.049057833437138036 -0.049021903035917067 -0.049050773427996436 -0.049011538821990039 -0.04902190303591708 -0.049006710016329599 -0.049021858631267776 -0.04905077342799645
leaf_weight=3.1008336916565886 2.1758857369422895 2.8754490911960593 1.5852694138884542 3.6330671012401581 1.4806673526763905 2.613990530371666 1.8491497263312364 1.5024510025978091 1.9667458757758156 1.6778028905391753 2.0463099256157866 1.4920823872089415 1.4787831604480768 1.5637797564268101 2.8636129051446906 1.5352290645241726 1.509222000837332 1.6915883794426907 1.805517554283141 2.839940220117569 1.49296600371599 1.4717945456504811 2.9195426851511002 1.6328987181186674 2.1673227995634079 1.4806957915425361 2.2266800701618195 1.4790110439062107 18.926552072167397 5.0072630196809769
leaf_count=26 24 37 21 32 16 32 23 20 20 21 27 20 20 20 38 21 20 23 24 38 20 20 39 22 29 20 30 20 255 67
internal_value=0 -0.0113107 0.100094 0.215771 -0.0280412 -0.0327637 -0.0141578 0.0655936 0.157446 -0.0426303 -0.0467457 -0.0490454 -0.0490952 -0.0490684 -0.0490461 -0.0490232 -0.0490261 -0.0490372 -0.0490447 -0.0490655 -0.0490504 -0.0490198 -0.049071 -0.0490441 -0.0490598 -0.0490217 -0.0490306 -0.0490201 -0.0490211 -0.0490497
internal_weight=0 78.9913 10.3138 5.80895 68.6775 67.1968 31.3602 8.25051 4.58074 23.1097 21.2605 35.8367 19.2142 17.5364 15.9726 32.9612 31.426 13.109 11.4174 4.34916 9.93865 27.0768 4.50481 8.13313 3.66977 25.605 3.71876 21.8863 20.4072 6.50023
internal_count=1045 1019 116 56 903 887 406 101 52 305 282 481 255 234 214 444 423 176 153 58 133 365 60 109 49 345 50 295 275 87
is_linear=0
shrinkage=0.05


Tree=19
num_leaves=31
num_cat=0
split_feature=6 9 6 9 9 11 8 8 0 1 6 0 10 8 1 6 9 9 8 9 0 0 9 1 8 1 1 1 0 0
split_gain=193.886 48.3622 134.546 15.3667 0.595783 3.713e-06 3.16473e-06 2.94549e-06 2.59272e-06 1.65789e-06 1.61829e-06 9.72458e-07 1.54906e-06 1.04037e-06 3.62081e-07 2.29374e-07 3.26105e-07 2.24945e-07 2.74893e-07 1.27357e-07 1.03123e-07 1.00672e-07 5.07189e-08 3.58394e-08 2.51609e-08 1.74326e-08 5.70938e-09 2.35409e-09 6.96403e-10 1.77636e-15
threshold=122000.00000000001 0.0020075562891784704 2.9200000000000004e-06 30799.830249775088 0.0020188959423592247 0.042390000000000004 0.30401898482764655 0.035314269543296882 9.52009182999101 0.78789748021013317 6.9465000000000012 1.8552972559178478 0.039016115000000011 9.3054963047885797e-07 0.18975184827145347 0.14300000000000004 5.5254116835083211 0.0051571381583422754 1.5777365079600962 0.0056644532192975808 1.6647865856573523 0.44491840273637939 0.45676300882855014 0.21013819212679 -0.26705349355534835 1.4464051131503679 0.94104537160110746 1.555643257480672 3.1306640151892133 1.6449091062236938
decision_type=2 2 2 2 2 2 2 2 2 2 2 2 2 2 2 2 2 2 2 2 2 2 2 2 2 2 2 2 2 2
left_child=1 2 9 -2 -3 20 7 -7 10 -1 14 -11 13 -13 -8 16 -16 -17 -19 -20 24 -18 -21 -23 -6 28 -25 29 -24 -26
right_child=3 4 -4 -5 5 6 8 -9 -10 11 -12 12 -14 -15 15 17 21 18 19 22 -22 23 25 26 27 -27 -28 -29 -30 -31
leaf_value=-0.047993435351907643 0.37031283514212121 -0.017178361452170561 0.35851835193684845 0.19256429948418491 -0.048054782922958048 -0.048081621421730072 -0.048094757192098075 -0.04818324039168384 -0.048000616560715553 -0.048090141432161018 -0.048126859871116486 -0.048054832133887018 -0.048089757965783311 -0.047991048636248035 -0.048098461253708674 -0.048085758181861164 -0.048085821145929707 -0.04803947447744096 -0.048052128175623009 -0.048078295157124119 -0.048063165704488486 -0.048076954459454098 -0.048067776088451586 -0.048067776088451586 -0.048047215772813824 -0.048061328527129354 -0.048071494734160759 -0.0480448399347028 -0.048069202672986325 -0.048047215772813824
leaf_weight=1.211569070816038 2.9611835479736319 1.6155396476387966 2.9273193180561066 2.0630660951137543 1.125950872898106 1.5905152484774618 1.6540949679911232 1.2926435731351373 1.2144640125334252 1.6509326659142969 1.4414254613220681 1.2385263703763492 1.2529624700546262 1.3213868029415605 1.3712921664118791 1.1948356553912152 1.1948724277317504 1.1199566572904576 1.4061910137534122 1.1350182853639124 1.1292063184082497 1.5883757025003431 3.5061588883399963 4.9764835834503174 13.533122442662714 1.1848142407834528 1.3023056797683237 1.122154779732228 1.1315636076033113 1.1792347356677044
leaf_count=22 25 28 26 26 20 28 29 22 22 29 25 22 22 24 24 21 21 20 25 20 20 28 62 88 241 21 23 20 20 21
internal_value=0 -0.0265392 0.0758922 0.297325 -0.0470269 -0.0480662 -0.0480775 -0.0481272 -0.0480719 -0.0480464 -0.0480755 -0.0480581 -0.0480442 -0.0480219 -0.0480722 -0.0480705 -0.0480757 -0.0480653 -0.0480627 -0.0480659 -0.0480485 -0.0480723 -0.0480686 -0.0480702 -0.0480476 -0.0480667 -0.0480685 -0.048047 -0.0480681 -0.0480472
internal_weight=0 57.6129 9.6027 5.02425 48.0102 46.3947 28.305 2.88316 25.4219 6.67538 24.2074 5.46381 3.81288 2.55991 22.766 21.1119 10.4333 10.6785 9.4837 8.36375 18.0897 9.06204 6.95756 7.86716 16.9605 5.82254 6.27879 15.8345 4.63772 14.7124
internal_count=1045 994 145 51 849 821 499 50 449 119 427 97 68 46 402 373 184 189 168 148 322 160 123 139 302 103 111 282 82 262
is_linear=0
shrinkage=0.05


Tree=20
num_leaves=31
num_cat=0
split_feature=7 6 9 6 9 0 9 8 0 8 7 9 6 6 6 6 8 7 8 9 9 0 0 1 10 7 9 0 1 7
split_gain=610.576 76.4615 17.3686 68.157 11.3474 1.32127 0.00720338 0.00544636 0.00224795 0.00178278 0.00152342 0.00363263 0.000885231 0.00237239 0.00147935 0.00044341 0.00155313 0.000394824 0.000275242 0.000252891 0.000122161 7.85553e-05 0.000139936 0.000118713 3.6097e-05 6.34328e-05 2.88229e-05 3.67621e-06 8.19133e-07 1.35029e-07
threshold=-2.0353689999999999e-07 -4.6599999999999993 0.010792356584211503 2.7425000000000002 2.96625660636804e-08 1.6721358773293338 0.0020107393507718774 0.035314269543296882 9.52009182999101 0.79068208848007693 6.748780500000002e-07 0.00092749459829201126 122000.00000000001 475000.00000000006 0.9900000000000001 0.14300000000000004 4.7418063184978427 45.348525000000002 1.7702513736893721 0.0020181555468653171 0.0014269066753604548 0.44491840273637939 0.48350864770177709 0.19251278577200828 34.500000000000007 10.067566500000002 0.0020244844422382387 2.707232461152222 0.81148274378078 2.7359955000000005
decision_type=2 2 2 2 2 2 2 2 2 2 2 2 2 2 2 2 2 2 2 2 2 2 2 2 2 2 2 2 2 2
left_child=1 -1 3 4 -2 6 -3 10 12 -9 -6 -12 14 -14 15 16 -4 -16 -17 -8 -13 -18 -23 -24 -25 -26 -21 -27 -20 -30
right_child=2 5 8 -5 7 -7 19 9 -10 -11 11 20 13 -15 17 18 21 -19 28 26 -22 22 23 24 25 27 -28 -29 29 -31
leaf_value=-0.070960828824854341 5.2008954353403766e-05 0.10809572237825714 -0.071523226754324168 0.10622154486076033 -0.070820882785425185 0.080816353514638742 0.1065830272860237 -0.072075863854783873 -0.069630849463909114 -0.070848576496418042 -0.068855356044465882 -0.070224741354590725 -0.069458202107816669 -0.070842773421167335 -0.070987295254241897 -0.070184710513771051 -0.070822467370290812 -0.071589904039268432 -0.070587215583581428 0.10634117901104621 -0.070540397738496616 -0.070414340151159063 -0.070863359400962264 -0.070567089874892727 -0.070801858139322091 -0.070567085599793314 0.10622154486076033 -0.070627448286477615 -0.070557531130404735 -0.0705670855997933
leaf_weight=6.58426609635353 6.7644208520650855 5.6283332407474509 5.6032410264015189 7.2707020640373221 5.5579683184623745 5.3502380251884452 5.3810194730758658 5.3791660666465742 5.4801737070083609 6.5767708420753479 5.9181026965379742 7.2825813740491849 5.2238740324974042 7.5874986052513123 5.8236627429723722 5.7729911506176022 5.5633385181426993 5.0972359478473663 5.044108152389529 5.3841528892517081 5.2926341742277145 6.7950507402420035 6.0710043907165518 15.381056129932405 6.067650735378268 5.0429689884185773 77.554155349731445 5.0463864803314209 5.0424098372459438 13.868164718151091
leaf_count=26 26 21 22 27 22 20 20 21 22 26 24 29 21 30 23 23 22 20 20 20 21 27 24 61 24 20 288 20 20 55
internal_value=0 0.0940438 -0.0598805 -0.0353077 -0.0593661 0.104985 0.106361 -0.0705286 -0.070619 -0.0714008 -0.070095 -0.0698769 -0.0706687 -0.0702782 -0.0707206 -0.0706505 -0.0707339 -0.0712686 -0.0704946 0.106251 -0.0703576 -0.0706454 -0.0706232 -0.0706609 -0.0706219 -0.0706741 0.106229 -0.0705973 -0.0705693 -0.0705645
internal_weight=0 105.882 164.553 50.0423 42.7716 99.2979 93.9477 36.0072 114.511 11.9559 24.0513 18.4933 109.031 12.8114 96.2193 85.2984 55.5707 10.9209 29.7277 88.3193 12.5752 49.9675 44.4041 37.6091 31.5381 16.157 82.9383 10.0894 23.9547 18.9106
internal_count=1045 395 650 196 169 369 349 143 454 47 96 74 432 51 381 338 220 43 118 328 50 198 176 149 125 64 308 40 95 75
is_linear=0
shrinkage=0.05


Tree=21
num_leaves=31
num_cat=0
split_feature=9 8 1 1 8 8 8 0 9 9 6 6 6 1 6 9 7 10 9 0 0 0 10 1 1 0 9 1 1 0
split_gain=7.3396 22.8098 7.70592e-06 1.34002e-06 1.65131e-11 1.48984e-11 2.06596e-11 8.36314e-12 6.79012e-12 3.81561e-12 3.60051e-12 1.06273e-11 6.802e-12 1.40993e-12 8.8779e-13 1.29061e-12 8.12461e-13 9.47992e-13 8.01012e-13 4.45088e-13 1.11866e-12 3.85747e-13 1.38112e-13 1.35864e-13 1.31742e-13 4.90094e-14 2.78666e-14 2.24404e-14 5.82867e-15 2.77556e-17
threshold=9.5913327993572923e-05 2.9728805812311215e-06 1.6421291365490391 1.6533975189707506 1.6331500158173543e-07 0.034540543530739841 0.30401898482764655 9.52009182999101 0.3111327761020764 0.0010159421326896162 122000.00000000001 475000.00000000006 6.9465000000000012 0.18975184827145347 0.14300000000000004 5.5254116835083211 0.78136945000000013 3.0061295000000006 0.26597149848930873 4.8026721623766138 1.6721358773293338 0.44491840273637939 9.7569455000000023 0.21013819212679 1.3634930011489812 2.34005766936292 0.0020188959423592247 0.94104537160110746 1.0085834813940249 1.6469609178909288
decision_type=2 2 2 2 2 2 2 2 2 2 2 2 2 2 2 2 2 2 2 2 2 2 2 2 2 2 2 2 2 2
left_child=1 3 5 4 -1 8 -7 10 9 -2 12 -12 13 -8 15 -15 -16 -18 -19 20 26 -17 24 -23 -20 -24 -11 -25 -28 -30
right_child=2 -3 -4 -5 -6 6 7 -9 -10 19 11 -13 -14 14 16 21 17 18 22 -21 -22 23 25 27 -26 -27 28 -29 29 -31
leaf_value=-0.045495094775693683 -0.045494875765149274 1.5026878818668834 -0.045854493363619533 -0.045899340338711493 -0.045496836892317476 -0.045497224015195986 -0.045496285260568932 -0.045494921862699489 -0.045496420140602609 -0.04549551983760089 -0.045494685972223038 -0.045496236489639186 -0.04549682717645432 -0.045496341480136496 -0.045495558995560959 -0.045496149066248784 -0.045496166233071782 -0.04549557496760212 -0.045495883257529707 -0.045495362806943052 -0.045495945213168944 -0.045496017939952803 -0.045495883257529866 -0.045495883257530817 -0.045496051206008692 -0.045495792710724854 -0.045495546978312436 -0.045495938738392618 -0.045495574967603772 -0.045495574967602606
leaf_weight=0.037211963033769391 0.020434854144695924 0.032291148905642331 0.17848828033311293 0.031669367104768753 0.021439094969537109 0.03194215300027281 0.02922231110278517 0.020464614906813949 0.023263133829459548 0.026723649585619569 0.020362136070616543 0.024167859461158514 0.023481025127694011 0.024227970046922565 0.021792855695821345 0.021105529856868088 0.025135031202808022 0.02477720845490694 0.027958392165601254 0.022675942163914442 0.020998638356104493 0.028051050379872322 0.030953934183344245 0.087869232520461082 0.020051131024956703 0.028890528134070337 0.019808311713859439 0.022996421321295202 0.24876317288726568 0.033697003498673439
leaf_count=38 21 15 35 3 21 31 29 21 23 27 21 24 23 24 22 21 25 25 28 23 21 28 31 88 20 29 20 23 251 34
internal_value=0 0.362132 -0.0455536 -0.0456373 -0.0454957 -0.0454958 -0.045496 -0.0454959 -0.0454956 -0.0454955 -0.045496 -0.0454955 -0.045496 -0.045496 -0.0454959 -0.045496 -0.0454958 -0.0454959 -0.0454958 -0.0454956 -0.0454956 -0.0454959 -0.0454959 -0.0454959 -0.045496 -0.0454958 -0.0454956 -0.0454959 -0.0454956 -0.0454956
internal_weight=0 0.122612 1.1083 0.0903204 0.0586511 0.929814 0.513449 0.481507 0.416365 0.393102 0.461043 0.04453 0.416513 0.393032 0.363809 0.18425 0.179559 0.157766 0.132631 0.372667 0.349991 0.160022 0.107854 0.138917 0.0480095 0.0598445 0.328992 0.110866 0.302268 0.28246
internal_count=1045 77 968 62 59 933 513 482 420 397 461 45 416 393 364 184 180 158 133 376 353 160 108 139 48 60 332 111 305 285
is_linear=0
shrinkage=0.05


Tree=22
num_leaves=31
num_cat=0
split_feature=9 1 0 8 0 0 8 0 11 8 9 8 1 6 6 0 6 8 8 7 1 0 0 1 0 9 1 0 1 1
split_gain=71.9229 12.4632 8.24582 19.6071 4.7636 0.000362923 0.000124842 1.30309e-06 4.82407e-07 2.58789e-07 1.49723e-07 1.23636e-07 6.17167e-08 2.00047e-07 6.92226e-08 5.86603e-08 3.29647e-08 1.8526e-08 1.02191e-08 9.88756e-09 1.5934e-08 8.9176e-09 7.02486e-09 1.13901e-08 5.64668e-09 8.30576e-09 4.08723e-09 2.99277e-09 8.32012e-09 2.2608e-09
threshold=1.8046787481249996e-07 0.56389884333188123 4.8026721623766138 0.033469801449400947 6.1728465673415327 13.338861144991228 0.034540543530739841 8.4328213715416727 0.018750000000000006 0.30401898482764655 1.0100754092743643e-06 0.035314269543296882 1.5103880505530276 92.500000000000014 122000.00000000001 0.44491840273637939 4.9705000000000004 -0.26705349355534835 1.1097352936515765 2.2375535000000002 0.98951197397877 2.4869398643963554 0.48350864770177709 0.4212810304674442 2.8631178074374497 22.209608779344013 1.6053015555487427 1.9730058985665127 1.1667237657004341 0.96411478077155421
decision_type=2 2 2 2 2 2 2 2 2 2 2 2 2 2 2 2 2 2 2 2 2 2 2 2 2 2 2 2 2 2
left_child=1 -1 8 -4 -5 6 -6 -8 10 11 -2 -10 14 21 15 -11 18 -12 -17 20 22 -14 -20 24 25 -24 29 -21 -29 -19
right_child=2 -3 3 4 5 -7 7 -9 9 12 17 -13 13 -15 -16 16 -18 26 19 27 -22 -23 23 -25 -26 -27 -28 28 -30 -31
leaf_value=0.38730924840178604 -0.046308959480981418 0.15907611215975337 0.30883505793695143 0.10514542471485207 -0.047294146611119213 -0.048107859505741687 -0.046340370453710221 -0.046449656796728744 -0.046305700252270418 -0.046310111576978535 -0.046285859094200188 -0.046340465036879448 -0.046285353753421771 -0.046331940423529394 -0.04627405078283401 -0.04628267428516826 -0.046304723570183351 -0.046273837529309157 -0.04628600747830551 -0.046289787908814092 -0.046301958338909814 -0.046295018594513751 -0.046302781453821149 -0.046287668536445989 -0.046290435571585284 -0.046292975391685497 -0.046271803159847066 -0.046290053851621854 -0.04628038596648329 -0.046277289905281863
leaf_weight=1.0248827338218718 0.3973455373197855 1.4365929402410982 0.5605985634028906 0.65963429026305709 0.59152028150856528 0.63969067484140385 0.57239947654306866 0.52105671726167202 0.67418829724192508 0.43870854936539938 0.60133305005729187 0.41205180250108242 0.48460453189909436 0.40801523812115192 0.55461532622575749 0.42502088472247113 0.41587604954838742 0.5161182153970002 0.52387356385588724 1.1693853419274094 0.39521970972418774 0.47029188089072704 0.41522803157568 0.7582228872925042 0.39005948975682259 0.44991691410541534 0.40072964318096627 0.52638184651732434 0.38553076237440109 5.8393329530954361
leaf_count=9 20 38 11 30 16 13 28 23 34 22 31 20 25 20 29 22 21 27 27 60 20 24 21 39 20 23 21 27 20 304
internal_value=0 0.254105 -0.0318638 0.0375222 -0.0134437 -0.0470939 -0.046709 -0.0463924 -0.0462883 -0.046296 -0.0462791 -0.0463189 -0.0462929 -0.0463026 -0.046291 -0.0462925 -0.0462912 -0.0462774 -0.0462901 -0.0462907 -0.0462926 -0.0462901 -0.0462912 -0.0462925 -0.0462954 -0.0462977 -0.0462767 -0.0462881 -0.046286 -0.046277
internal_weight=0 2.46148 20.597 3.5449 2.9843 2.32467 1.68498 1.09346 17.0521 9.29719 7.75486 1.08624 8.21095 1.36291 6.84804 6.29342 5.85472 7.35751 5.43884 5.01382 2.93252 0.954896 2.5373 2.01343 1.2552 0.865145 6.75618 2.0813 0.911913 6.35545
internal_count=1045 47 998 121 110 80 67 51 877 474 403 54 420 69 351 322 300 383 279 257 150 49 130 103 64 44 352 107 47 331
is_linear=0
shrinkage=0.05


Tree=23
num_leaves=31
num_cat=0
split_feature=6 0 6 11 8 8 0 11 8 0 9 10 9 0 9 6 9 9 0 10 7 0 0 9 0 2 0 9 0 9
split_gain=8.33774 12.6037 3.69141e-09 1.31537e-09 1.15123e-09 5.52751e-10 2.25443e-10 2.16328e-10 8.76084e-10 1.70598e-10 1.48618e-10 1.11031e-10 1.10052e-10 7.57934e-11 1.11969e-10 8.13547e-11 9.42024e-11 1.14072e-10 2.99776e-11 2.52974e-11 1.71373e-11 2.75003e-11 3.46386e-11 2.48105e-11 1.31564e-11 9.50519e-12 7.56456e-12 7.19846e-12 4.6636e-12 9.4615e-12
threshold=72000.000000000015 1.8515642937953547 18.516500000000004 0.042390000000000004 0.30401898482764655 0.035314269543296882 9.52009182999101 5.1850000000000012e-06 1.5451752164849374e-07 0.44491840273637939 0.00092749459829201126 1.0000000180025095e-35 0.0019933545305611893 3.5655456660059115 0.5311448190034288 2.7425000000000002 0.035938048917267047 0.77299846251751891 1.6647865856573523 7.3060000000000009 0.72107895000000011 0.48350864770177709 2.8631178074374497 22.209608779344013 8.4328213715416727 2509.0000000000005 1.5830112772522307 0.0020188959423592247 1.9730058985665127 12.291744110601178
decision_type=2 2 2 2 2 2 2 2 2 2 2 2 2 2 2 2 2 2 2 2 2 2 2 2 2 2 2 2 2 2
left_child=2 -2 3 7 5 -5 9 8 11 -6 -9 18 24 15 -15 16 -11 -18 26 -19 21 -21 23 -23 -12 -16 -1 -14 -22 -30
right_child=1 -3 -4 4 6 -7 -8 10 -10 13 12 -13 27 14 25 -17 17 19 -20 20 28 22 -24 -25 -26 -27 -28 -29 29 -31
leaf_value=-0.045571140622390691 -0.046934988115616576 0.3455627973309825 -0.045584599033943102 -0.045574167771949253 -0.045575017212106439 -0.045579805208023724 -0.045569378884297976 -0.045568559858694943 -0.04557689424936013 -0.045573881882343917 -0.045572340270156497 -0.04556862751962238 -0.045569921707421968 -0.045575031158881431 -0.04557291871269914 -0.045570707596919183 -0.045569956371032568 -0.045573293591470818 -0.0455720488965825 -0.045571675596527188 -0.04557212882271075 -0.045574048093944247 -0.045572034665521975 -0.045572642494592079 -0.045571324849020045 -0.04557205845123135 -0.04557039522358565 -0.045570386729156309 -0.045571320164352586 -0.045572156047492436
leaf_weight=0.056131357327104836 0.43998165056109417 0.38221240229904652 0.057644549757242092 0.097800520947202929 0.063783187419175991 0.078288321616128087 0.060754332924261578 0.10416004084981956 0.067646752344444394 0.086184876039623992 0.073733053635805845 0.060389466350898147 0.094448154792189598 0.060839462326839566 0.056986962212249637 0.08667843509465456 0.055563736939802766 0.060023826081305742 0.056571514578536153 0.076130981557071209 0.17834136774763465 0.06038527307100594 0.09051502263173461 0.06539187696762383 0.056223876774311066 0.073555836221203208 0.086469318717718124 0.70007436815649271 0.067462172592058778 0.067955453647300601
leaf_count=20 18 36 19 34 22 26 22 38 23 30 26 22 34 21 20 31 20 21 20 27 63 21 32 23 20 26 31 251 24 24
internal_value=0 0.135525 -0.0455721 -0.0455718 -0.0455729 -0.0455767 -0.0455723 -0.0455707 -0.0455718 -0.0455725 -0.0455704 -0.0455705 -0.0455706 -0.0455724 -0.0455733 -0.0455722 -0.0455723 -0.0455721 -0.0455711 -0.0455723 -0.0455722 -0.0455725 -0.0455728 -0.0455733 -0.0455719 -0.0455724 -0.0455707 -0.0455703 -0.045572 -0.0455717
internal_weight=0 0.822194 2.80013 2.74249 1.38664 0.176089 1.21055 1.35585 0.327208 1.1498 1.02864 0.259562 0.924479 1.08602 0.191382 0.894633 0.807955 0.72177 0.199172 0.666206 0.606182 0.292423 0.216292 0.125777 0.129957 0.130543 0.142601 0.794523 0.313759 0.135418
internal_count=1045 54 991 972 487 60 427 485 116 405 369 93 331 383 67 316 285 255 71 235 214 103 76 44 46 46 51 285 111 48
is_linear=0
shrinkage=0.05


Tree=24
num_leaves=31
num_cat=0
split_feature=0 9 2 2 11 8 8 1 7 0 1 7 7 9 9 8 8 8 1 10 1 10 0 9 0 8 0 10 7 8
split_gain=4.66557 4.34617e-07 1.10416e-07 1.01861e-07 6.55899e-11 3.80989e-11 1.95422e-11 6.12965e-12 1.78208e-11 6.70008e-12 7.21234e-12 4.6696e-12 3.45723e-12 2.45143e-12 4.75427e-12 2.68592e-12 2.16349e-12 2.15478e-12 1.75138e-12 9.30339e-13 9.05505e-13 6.92557e-13 6.41515e-13 6.23862e-13 6.02858e-13 4.2491e-13 3.31374e-13 3.39354e-13 1.78961e-13 1.31867e-13
threshold=12.759031636091914 4.3293422221555274e-06 2298.0000000000005 2507.0000000000005 0.042390000000000004 0.30401898482764655 0.035314269543296882 1.5103880505530276 110.95650500000001 0.44491840273637939 0.1780846439306015 175800.00000000003 24.172085000000003 0.58826879713893165 0.0054291725545155042 1.4966811130364155 0.014142225493318613 -0.26705349355534835 0.98491805293931955 7.3060000000000009 1.6077596351016612 0.008993612500000003 0.97004786523837205 0.0020188959423592247 0.49347169354991438 -0.00030131978652321475 3.1186945433988584 34.500000000000007 1.6591005000000003 -0.26555989873082303
decision_type=2 2 2 2 2 2 2 2 2 2 2 2 2 2 2 2 2 2 2 2 2 2 2 2 2 2 2 2 2 2
left_child=1 2 -1 -4 16 6 -6 9 20 -7 -11 12 13 14 -12 -16 17 -3 -19 -15 -9 23 24 25 -21 -20 27 -24 -28 -25
right_child=-2 4 3 -5 5 7 -8 8 -10 10 11 -13 -14 19 15 -17 -18 18 21 22 -22 -23 26 29 -26 -27 28 -29 -30 -31
leaf_value=-0.045643756787091108 0.22955998631655961 -0.045493521602461735 -0.04562475331714852 -0.0454937106706668 -0.045494382502135861 -0.04549463873273564 -0.045496228720184967 -0.045493896520188239 -0.045495370370926845 -0.045494599509427525 -0.045494037238628264 -0.045493061045948649 -0.045494205944643422 -0.045494070353048588 -0.045492653375300722 -0.045493464497282893 -0.045493539312613962 -0.045492632955376991 -0.04549306155638666 -0.045493719454156256 -0.045493452777872347 -0.045493397899773469 -0.04549365957614232 -0.045493228627882104 -0.045494082819245843 -0.045492722905054905 -0.045493696258735776 -0.04549343716453793 -0.0454938908634928 -0.045493101471894275
leaf_weight=0.05890626600012161 0.18153231218457233 0.029183991195168346 0.025267349788919091 0.035897674213629216 0.031721581181045622 0.021302263310644776 0.02614858845481649 0.027562756149563938 0.024615873524453491 0.022225346940103918 0.019078478100709617 0.028827713220380247 0.033514468523208052 0.020048589329235256 0.019331334158778191 0.021621213527396321 0.032025240594521165 0.021133543225005269 0.01860891014803201 0.026498416729737073 0.01972330390708521 0.018770349968690425 0.08315297169610858 0.0224272211198695 0.020053102169185877 0.018442033266182989 0.031210748653393239 0.021607455157209188 0.01900997431948781 0.22447903285501525
leaf_count=13 30 31 8 38 33 22 26 29 25 23 20 31 35 21 21 23 34 23 20 28 21 20 88 24 21 20 33 23 20 241
internal_value=0 -0.0455055 -0.0455949 -0.0455478 -0.0454936 -0.045494 -0.0454952 -0.0454939 -0.0454943 -0.0454938 -0.0454937 -0.0454937 -0.0454937 -0.0454937 -0.0454934 -0.0454931 -0.0454931 -0.0454931 -0.0454931 -0.0454937 -0.0454937 -0.0454931 -0.0454937 -0.0454931 -0.0454939 -0.0454929 -0.0454937 -0.0454936 -0.0454938 -0.0454931
internal_weight=0 1.0224 0.120071 0.061165 0.902325 0.517254 0.0578702 0.459384 0.0719019 0.387482 0.36618 0.343954 0.315127 0.281612 0.060031 0.0409525 0.38507 0.353045 0.323861 0.221581 0.0472861 0.302728 0.201533 0.283957 0.0465515 0.0370509 0.154981 0.10476 0.0502207 0.246906
internal_count=1045 1015 59 46 956 543 59 484 75 409 387 364 333 298 64 44 413 379 348 234 50 325 213 305 49 40 164 111 53 265
is_linear=0
shrinkage=0.05


Tree=25
num_leaves=31
num_cat=0
split_feature=7 10 7 9 6 7 8 0 9 9 6 1 10 1 1 7 9 1 0 0 2 2 9 0 1 0 0 9 9 9
split_gain=118.011 98.7461 59.8208 47.9628 45.5352 33.3656 24.5228 11.7442 10.8902 1.46029 1.19897 2.80243 0.291919 0.00293584 0.00102608 0.000223656 0.000137439 4.21789e-05 2.98925e-05 1.85632e-05 1.56176e-05 1.79253e-05 7.4925e-06 3.20465e-06 5.04398e-06 3.88484e-06 1.75128e-06 1.11918e-06 1.10969e-06 2.21478e-07
threshold=1.0000000180025095e-35 2.2810950000000005 0.027451670000000004 9.2649055334535169e-09 4.9715000000000016 64.938395000000014 1708120.4775366844 1.6960486500318817 0.035938048917267047 0.0019946461645259793 -1.0000000180025095e-35 1.4322496891435332 0.018000000000000006 0.96411478077155421 1.4345342481881629 1.1514620000000002 0.21682243173140001 1.1123699517323848 1.6695968062646833 0.44491840273637939 2494.0000000000005 2298.0000000000005 0.21682243173140001 0.48350864770177709 0.18975184827145347 1.0426066223548651 3.7835325288614983 0.0020188959423592247 1.3661720030349669 12.291744110601178
decision_type=2 2 2 2 2 2 2 2 2 2 2 2 2 2 2 2 2 2 2 2 2 2 2 2 2 2 2 2 2 2
left_child=9 2 3 -2 15 -6 14 -5 10 -1 -4 -12 13 -9 -7 -3 18 19 27 -18 21 -17 -22 -21 -25 -26 28 -11 -24 -30
right_child=1 4 8 7 5 6 -8 12 -10 16 11 -13 -14 -15 -16 20 17 -19 -20 23 22 -23 26 24 25 -27 -28 -29 29 -31
leaf_value=-0.012376731104867485 0.21858832117693083 -0.05192948416745008 0.20736197366191444 0.073016988478272413 0.17580812293308454 -0.051326241990056212 0.14279011885617807 -0.051321993637371943 0.093453957154361167 -0.051306123289435485 0.14513584064986859 0.20318151141559176 -0.031597250691510724 -0.053592821626251487 -0.052690785330971747 -0.051435606766533061 -0.051602950609385537 -0.051690836992851902 -0.051521205105318185 -0.051410928064313313 -0.051336101463743025 -0.051597022226749556 -0.051465190090012249 -0.051529559793363572 -0.051502680082911138 -0.051430834414659898 -0.051388378624586832 -0.051337456745512537 -0.051416348015328843 -0.051435263447569303
leaf_weight=2.4981593936681739 2.7288370579481152 2.6290424391627338 5.8316374570131311 2.769460901618003 4.4853103160858137 3.004995584487915 2.2811018824577332 2.9996224120259267 3.6789505481719962 3.1121323406696311 3.6846345365047455 4.7729547768831253 2.3937002271413803 2.7085271999239922 2.5439956188201904 4.2938895896077183 2.5391445383429589 2.6835645809769622 2.2841609865427008 3.0419731587171546 2.7896928936243048 2.8692654296755791 2.6096241846680623 2.6295161768794051 2.621605843305586 6.6650958657264709 2.2462451085448256 33.817079722881317 2.9315333738923073 3.2779041975736618
leaf_count=20 16 22 31 21 24 27 15 27 24 28 20 25 19 20 20 38 22 23 20 27 25 25 23 23 23 59 20 303 26 29
internal_value=0 0.045755 0.110288 0.031174 -0.0108922 0.0670699 0.00478137 -0.0158694 0.170169 -0.0498251 0.18992 0.177893 -0.0462535 -0.0523995 -0.0519518 -0.0514947 -0.0514002 -0.0515063 -0.0513457 -0.051478 -0.0514403 -0.0515003 -0.0514093 -0.0514567 -0.0514684 -0.0514511 -0.0514278 -0.0513348 -0.0514378 -0.0514263
internal_weight=0 67.5309 31.5683 13.6001 35.9626 12.3154 7.83009 10.8713 17.9682 61.8924 14.2892 8.45759 8.10185 5.70815 5.54899 23.6472 59.3943 20.1809 39.2134 17.4973 21.0182 7.16316 13.855 14.9582 11.9162 9.2867 11.0653 36.9292 8.81906 6.20944
internal_count=1045 497 203 103 294 86 62 87 100 548 76 45 66 47 47 208 528 177 351 154 186 63 123 132 105 82 98 331 78 55
is_linear=0
shrinkage=0.05


Tree=26
num_leaves=31
num_cat=0
split_feature=0 8 1 9 1 1 11 8 8 10 8 6 6 6 0 6 0 9 9 9 0 0 10 8 9 9 11 0 1 8
split_gain=8.55483 14.0136 5.5812 0.000283675 0.000264578 1.31316e-07 5.85118e-09 3.12774e-09 5.60808e-09 2.01575e-09 3.22796e-09 1.4364e-09 2.46335e-09 2.41142e-09 1.23873e-09 1.14739e-09 3.59752e-10 3.52334e-10 3.1239e-10 4.27245e-10 2.27714e-10 1.27908e-10 9.82752e-11 1.13813e-10 6.07947e-11 4.23959e-11 2.5537e-11 6.12209e-11 1.90196e-11 5.30412e-12
threshold=0.85871776394284427 0.52328843047020512 0.23280154111451701 0.00092749459829201126 0.72292236009399191 0.25339755782286766 0.013250000000000003 0.30401898482764655 0.035314269543296882 5.463844500000001e-06 1.6331500158173543e-07 6.7750000000000012 122000.00000000001 475000.00000000006 8.6550009117957334 -0.18999999999999997 1.6713000910820355 20.480758770317426 0.0051571381583422754 0.26597149848930873 2.4869398643963554 2.0552741603849882 9.2860160000000018 3.3680459947104358 0.010524911015696645 0.0020188959423592247 113.50000000000001 1.9730058985665127 0.94104537160110746 52.128506392240858
decision_type=2 2 2 2 2 2 2 2 2 2 2 2 2 2 2 2 2 2 2 2 2 2 2 2 2 2 2 2 2 2
left_child=1 -1 -2 4 -4 17 16 8 15 10 -6 14 -13 -14 18 -8 24 -3 -9 21 -17 -20 23 -21 25 -5 27 -24 -28 -19
right_child=2 5 3 6 9 -7 7 11 -10 -11 -12 12 13 -15 -16 20 -18 29 19 22 -22 -23 26 -25 -26 -27 28 -29 -30 -31
leaf_value=0.39019366838756275 0.11390006357431277 -0.045654333124130538 -0.047625164415716355 -0.045646991889778693 -0.045647214641469057 -0.045718044799729969 -0.045656772782318757 -0.045653410078532818 -0.045664638261676854 -0.045644597598740906 -0.045659785309726107 -0.04565915207375728 -0.045644600806717034 -0.045654836998827636 -0.045644707398938097 -0.045652371831936558 -0.045651012830298571 -0.045650437775463647 -0.045649855181750298 -0.045650389289170396 -0.045649239797194208 -0.04564739112742415 -0.045650962519017443 -0.045652521884956491 -0.045649110415990901 -0.045647910937674174 -0.045650670136783811 -0.045649556239943385 -0.045651351012870434 -0.045650951040838272
leaf_weight=0.3401589891873299 0.61902966769412149 0.10060946131125093 0.38258744776248921 0.13853855337947596 0.10626458842307329 0.099796096794307232 0.10185257205739617 0.10017960472032417 0.12587960157543421 0.10012225620448589 0.098317285533994436 0.13710701232776035 0.095770022831857204 0.14411474717780948 0.09124101698398579 0.094868522137403821 0.098975833039730676 0.093983171042054892 0.093675675336271413 0.098671682644635217 0.14946293924003839 0.1203050697222352 0.16022091684862971 0.17095989501103759 0.098016605712473281 1.3316582073457537 0.37173490785062313 0.14970442885532975 0.14164916053414345 0.10838033631443977
leaf_count=7 28 21 8 30 23 18 21 21 25 22 20 28 21 30 20 20 21 20 20 21 32 26 34 36 21 287 79 32 30 23
internal_value=0 0.153897 -0.0272304 -0.045811 -0.0467497 -0.0456683 -0.0456504 -0.045652 -0.0456556 -0.0456504 -0.0456533 -0.045651 -0.0456538 -0.0456508 -0.0456504 -0.0456523 -0.0456481 -0.0456519 -0.0456507 -0.0456505 -0.0456505 -0.0456485 -0.0456509 -0.0456517 -0.0456479 -0.0456478 -0.0456506 -0.0456503 -0.0456509 -0.0456507
internal_weight=0 0.742928 5.32091 4.70188 0.687292 0.402769 4.01459 2.3474 0.472064 0.304704 0.204582 1.87533 0.376992 0.239885 1.49834 0.346184 1.66719 0.302973 1.4071 1.30692 0.244331 0.213981 1.09294 0.269632 1.56821 1.4702 0.823309 0.309925 0.513384 0.202364
internal_count=1045 89 956 928 73 82 855 496 98 65 43 398 79 51 319 73 359 64 299 278 52 46 232 57 338 317 175 66 109 43
is_linear=0
shrinkage=0.05


Tree=27
num_leaves=31
num_cat=0
split_feature=11 6 1 11 9 1 8 1 10 7 8 1 8 6 9 1 9 7 11 9 10 6 9 7 6 8 9 1 9 2
split_gain=433.539 120.762 15.2533 46.7766 5.95387 4.51058 0.577016 0.376378 0.316484 0.997333 0.00639338 0.00442645 0.00333336 0.00318285 0.00231995 0.00213218 0.00224556 0.000607862 0.00141252 0.000706547 0.000538584 0.000453978 0.000347486 0.000251234 6.73666e-05 5.89627e-05 8.62966e-05 1.15271e-05 8.30184e-06 2.90103e-06
threshold=14.000000000000002 42.500000000000007 0.31529783618325724 47.000000000000007 0.035938048917267047 1.1123699517323848 273415.01976284588 0.1780846439306015 34.500000000000007 10.067566500000002 1.7022146401966756 0.20360427875168283 0.035314269543296882 0.2950000000000001 15.534253855483614 1.4543222965502409 14.2273926881289 -2.0353689999999999e-07 5.1850000000000012e-06 0.00092749459829201126 7.588327500000001 2.7425000000000002 30799.830249775088 -0.0033063484999999995 2.9200000000000004e-06 -0.26555989873082303 0.010031554437925897 1.5727184877101033 1.336669181580177 2553.0000000000005
decision_type=2 2 2 2 2 2 2 2 2 2 2 2 2 2 2 2 2 2 2 2 2 2 2 2 2 2 2 2 2 2
left_child=4 2 3 -2 12 -6 -3 -5 10 -10 -4 -9 17 -14 -11 16 20 23 -19 -20 -12 -15 -8 25 -21 26 -1 29 -22 -27
right_child=1 6 8 7 5 -7 22 11 9 14 15 -13 13 21 -16 -17 -18 18 19 24 28 -23 -24 -25 -26 27 -28 -29 -30 -31
leaf_value=-0.061617802139054594 -0.038159877506535822 -0.040291736222793292 0.11746408085403569 0.10015383616526918 0.0091762198699490965 -0.050216518440674256 -0.061646776009010307 0.11718889377120648 0.089558115025896529 0.11654073676745345 0.11572204403271265 0.11528525932887623 -0.063086273086364233 -0.061961844123163579 0.11514175267483136 0.11649306813377003 0.11632915757021167 -0.062179494331207875 -0.061002499156655468 -0.061510698864741399 0.11521060897323721 -0.061370746673866883 -0.062237131979770835 -0.060944642231850366 -0.061759015016977482 -0.061317751235265033 -0.061326658382120029 -0.061255429654403892 0.11514228572684825 -0.061345463090419966
leaf_weight=4.2565881609916669 7.3979685306549099 4.4057206511497489 5.2184966206550589 5.2658959329128292 5.3586287796497327 7.9236249625682831 4.4717925041913968 5.2213408946990949 5.2021118998527554 5.2326905727386457 5.2469986379146603 7.3557237982749939 5.7524982839822796 6.6643545776605588 6.8333038985729218 5.7576278746128073 6.0214050412178031 7.3419378548860577 7.9259728044271496 6.1502719372510892 6.0435565412044552 6.3370991349220276 5.6317022293806076 4.3775303959846488 4.913346990942955 43.878313109278679 6.3303452879190445 6.9480503052473059 16.820413112640381 12.034295931458471
leaf_count=20 32 20 20 21 23 36 21 20 20 20 20 28 26 31 26 22 23 34 38 29 23 30 26 21 23 208 30 33 64 57
internal_value=0 0.0782185 0.100344 0.0675484 -0.0580567 -0.0262549 -0.0553915 0.111377 0.113615 0.107858 0.115818 0.116076 -0.0614934 -0.062107 0.115748 0.115603 0.115453 -0.0613829 -0.0615905 -0.0613628 0.115265 -0.0616737 -0.0619758 -0.0613126 -0.061621 -0.0613346 -0.0614437 -0.0613162 0.11516 -0.0613237
internal_weight=0 102.127 87.6175 25.2409 136.193 13.2823 14.5092 17.843 62.3766 17.2681 45.1085 12.5771 122.911 18.754 12.066 39.89 34.1324 104.157 26.3315 18.9896 28.111 13.0015 10.1035 77.8251 11.0636 73.4476 10.5869 62.8607 22.864 55.9126
internal_count=1045 406 339 101 639 59 67 69 238 66 172 48 580 87 46 152 130 493 124 90 107 61 47 369 52 348 50 298 87 265
is_linear=0
shrinkage=0.05


Tree=28
num_leaves=31
num_cat=0
split_feature=9 11 1 8 11 8 8 9 0 1 7 7 0 1 7 0 9 9 10 1 0 0 0 9 9 0 10 7 0 0
split_gain=47.5418 20.0059 0.000114672 7.09483e-07 2.35882e-07 7.14966e-08 1.7199e-07 4.11486e-08 4.02019e-08 2.42109e-08 7.56721e-08 2.83907e-08 2.3723e-08 2.56329e-08 1.35127e-08 1.20705e-08 5.86043e-09 1.6353e-08 3.95081e-09 3.84742e-09 3.75096e-09 2.70669e-09 2.55076e-09 2.039e-09 1.43229e-09 1.41044e-09 1.43577e-09 7.58471e-10 2.56822e-10 3.21245e-10
threshold=0.00092749459829201126 1.4500000000000002e-05 1.5175020962988048 1.4642997179465475e-07 0.013250000000000003 0.30401898482764655 0.035314269543296882 0.21682243173140001 9.52009182999101 1.5103880505530276 110.95650500000001 175800.00000000003 0.44491840273637939 0.1780846439306015 24.172085000000003 1.6713000910820355 0.58826879713893165 0.0054291725545155042 7.3060000000000009 1.6077596351016612 4.8026721623766138 0.97004786523837205 0.49347169354991438 0.010524911015696645 0.0020188959423592247 3.1186945433988584 34.500000000000007 1.6591005000000003 2.2993460580981484 1.6246123771020418
decision_type=2 2 2 2 2 2 2 2 2 2 2 2 2 2 2 2 2 2 2 2 2 2 2 2 2 2 2 2 2 2
left_child=1 2 3 -1 15 6 7 20 9 11 19 12 -7 -14 16 23 17 -15 -18 -11 -6 22 -20 24 -2 26 28 -27 29 -23
right_child=4 -3 -4 -5 5 8 -8 -9 -10 10 -12 -13 13 14 -16 -17 18 -19 21 -21 -22 25 -24 -25 -26 27 -28 -29 -30 -31
leaf_value=-0.046063996757894216 -0.046075565736306619 0.21295497742711189 -0.047287000387901713 -0.046165607123118069 -0.046089850570157742 -0.04610378668717996 -0.046129888171323429 -0.046107427414302175 -0.046073075918158179 -0.046091610224836557 -0.046115796437171487 -0.046077913417753066 -0.046103140946257753 -0.046093926133375214 -0.046096691527684086 -0.046088663220452582 -0.046094465600178908 -0.046079469271440167 -0.046088703815581354 -0.046084327290821687 -0.046083134956665439 -0.046087395253822758 -0.046094655347727977 -0.046082469767166977 -0.046078567329954204 -0.046088332777359325 -0.04608408289289994 -0.046091522755074027 -0.046087040690454599 -0.046089638071830558
leaf_weight=0.3444896899163753 0.43878421746194263 3.0108129307627678 0.29950555600225925 0.34268786292523146 0.40338918380439082 0.33589721936732519 0.41208917461335648 0.32243447937071323 0.32012573443353165 0.43472260143607833 0.38805101253092289 0.45480593387037505 0.35045639518648375 0.30089327227324236 0.52853602170944203 0.31341698206961144 0.31618989724665914 0.55903624091297388 0.41796051617711816 0.31112439185380936 0.42911407630890608 0.34263641107827447 0.31625963188707829 0.31040871422737826 4.2174823815003037 0.49229238834232081 0.34084732830524433 0.29982730560004711 0.67000192683190107 0.29896444734185934
leaf_count=24 30 23 15 21 27 22 26 21 22 29 25 31 23 20 35 21 21 38 28 21 29 23 21 21 287 33 23 20 45 20
internal_value=0 0.148922 -0.0464705 -0.0461147 -0.0460875 -0.0460924 -0.0461022 -0.0460923 -0.0460904 -0.0460912 -0.0460979 -0.0460899 -0.0460909 -0.0460901 -0.0460891 -0.0460791 -0.0460882 -0.0460845 -0.0460891 -0.0460886 -0.0460864 -0.0460886 -0.0460913 -0.0460785 -0.0460783 -0.0460878 -0.046087 -0.0460895 -0.0460877 -0.0460884
internal_weight=0 3.9975 0.986683 0.687178 14.3257 9.04566 1.56703 1.15494 7.47863 7.1585 1.1339 6.0246 5.5698 5.2339 4.88345 5.28009 4.35491 0.85993 3.49498 0.745847 0.832503 3.17879 0.73422 4.96668 4.65627 2.44457 1.65245 0.79212 1.3116 0.641601
internal_count=1045 83 60 45 962 603 103 77 500 478 75 403 372 350 327 359 292 58 234 50 56 213 49 338 317 164 111 53 88 43
is_linear=0
shrinkage=0.05


Tree=29
num_leaves=31
num_cat=0
split_feature=6 1 11 9 6 7 6 11 6 1 7 1 9 1 8 1 8 6 8 11 9 11 9 9 9 9 2 9 9 9
split_gain=73.9653 49.5289 51.1632 25.4107 22.5193 7.94876 25.2585 26.4227 49.1364 2.58145 1.76536 0.444905 6.79477e-05 9.66091e-05 6.41498e-05 5.53205e-05 4.45152e-05 5.93385e-06 4.58125e-06 2.69992e-06 3.09782e-06 7.89499e-07 1.72736e-06 5.20154e-07 2.73742e-07 2.67102e-07 2.51589e-07 2.07697e-07 2.07415e-07 1.47467e-07
threshold=-4.6599999999999993 0.31529783618325724 47.000000000000007 7.3713403026104505 1100000.0000000002 0.00015276269500000004 2.9200000000000004e-06 143.50000000000003 -1.9999999999999996e-07 0.1780846439306015 0.016066665000000004 1.6285161228386593 9.7969072413280813e-07 1.2444357267989037 0.54065855138652597 0.20360427875168283 277259.94174590945 4.9715000000000016 6.9727165047650148 3.1800000000000002 0.29114776552952487 3.4500000000000005e-05 0.0099722765429460011 1.7123299769542233 0.0020188959423592247 1.0753396370771842 2525.0000000000005 14.2273926881289 1.3849189135861184 14.002691510633758
decision_type=2 2 2 2 2 2 2 2 2 2 2 2 2 2 2 2 2 2 2 2 2 2 2 2 2 2 2 2 2 2
left_child=-1 2 3 -2 5 12 7 8 -7 -4 -8 14 13 -3 -12 -11 17 19 21 -16 -21 22 -14 25 26 -22 -23 -20 -27 -9
right_child=1 4 9 -5 -6 6 10 29 -10 15 11 -13 18 -15 16 -17 -18 -19 27 20 23 24 -24 -25 -26 28 -28 -29 -30 -31
leaf_value=0.21067770961824295 0.069719364898306685 -0.049303716858266719 0.021744835285236994 0.28180604946282911 0.15034750648376699 -0.029628989570497918 0.0045435391901041807 -0.048849778805136981 0.2758805649346821 -0.049234982009975253 -0.049192529978974976 -0.024061414553397442 -0.048841637951522632 -0.04880418150588034 -0.048868714991056043 -0.048831624924960147 -0.049114532743360348 -0.048902795554195758 -0.048829159073105852 -0.048758204856696193 -0.048820618088897157 -0.048747663461489642 -0.048778937124661748 -0.048797599924323434 -0.048778244276261484 -0.048855149206591349 -0.048776339095181677 -0.048853037378725483 -0.04882902350681171 -0.048828831854757511
leaf_weight=3.9595422744750968 2.4840580075979215 1.6277810111641873 2.0513468384742737 3.2733984291553497 1.7371513918042172 2.538611151278019 1.8532820343971277 1.4227655306458475 2.7330143228173274 1.4879998341202738 1.6041663289070189 2.0019250884652129 1.5617794319987357 2.3875275775790215 2.3584666699171093 1.9827384650707243 1.5736902281641949 2.6640715524554244 2.0522660315036769 2.2926077544689161 3.2480654865503311 1.5240993201732664 3.7024861201643944 1.473565377295017 17.810567438602448 1.424700550734997 1.5355466231703756 1.6371463015675543 1.6276027783751486 2.0520934239029884
leaf_count=26 25 21 21 22 16 32 23 20 20 20 21 27 22 34 33 28 21 37 29 33 46 22 53 21 255 20 22 23 23 29
internal_value=0 -0.0108618 0.0860119 0.190301 -0.0273068 -0.0320761 -0.013728 0.0582023 0.128759 -0.0227225 -0.0421672 -0.0464382 -0.0488136 -0.0490067 -0.0488905 -0.0490046 -0.0488615 -0.0488351 -0.0487876 -0.0488206 -0.0488093 -0.0487802 -0.0487975 -0.0488243 -0.0487759 -0.0488306 -0.0487621 -0.0488398 -0.0488412 -0.0488374
internal_weight=0 77.7245 11.2795 5.75746 66.445 64.7078 30.8686 8.74648 5.27163 5.52209 22.1221 20.2689 33.8392 4.01531 18.2669 3.47074 16.6628 15.0891 29.8239 12.425 10.0665 26.1345 5.26427 7.77393 20.8702 6.30037 3.05965 3.68941 3.0523 3.47486
internal_count=1045 1019 116 47 903 887 406 101 52 69 305 282 481 55 255 48 234 213 426 176 143 374 75 110 299 89 44 52 43 49
is_linear=0
shrinkage=0.05


Tree=30
num_leaves=31
num_cat=0
split_feature=6 9 6 8 9 11 8 7 6 8 0 0 0 10 0 0 9 9 10 7 0 0 9 9 0 7 0 9 0 2
split_gain=137.322 42.9918 86.7835 6.34174 0.611695 1.28878e-05 9.28798e-06 6.67728e-06 6.52007e-06 4.61638e-06 5.0272e-06 2.02078e-06 1.59189e-06 9.62905e-07 5.74655e-07 5.01018e-07 4.99253e-07 1.33704e-06 2.7123e-07 1.83254e-07 2.40207e-07 3.1218e-07 2.27476e-07 1.62837e-07 1.53339e-07 1.08122e-07 4.31175e-08 9.98062e-08 8.48102e-09 7.05335e-09
threshold=122000.00000000001 0.0020075562891784704 2.9200000000000004e-06 951362.63833554683 0.0020188959423592247 0.042390000000000004 0.30401898482764655 0.014777780000000003 6.9465000000000012 1.4642997179465475e-07 2.1564533524517429 9.52009182999101 0.44491840273637939 0.039016115000000011 6.1362757781200159 1.6647865856573523 0.0051571381583422754 0.064553022670888346 9.7569455000000023 0.72107895000000011 0.48350864770177709 2.8631178074374497 22.209608779344013 0.96634447691214798 2.0552741603849882 -0.30013139999999994 1.9730058985665127 12.291744110601178 1.4931951302377737 2509.0000000000005
decision_type=2 2 2 2 2 2 2 2 2 2 2 2 2 2 2 2 2 2 2 2 2 2 2 2 2 2 2 2 2 2
left_child=1 2 9 -2 -3 15 7 -7 11 -1 -11 12 -8 -12 16 25 -14 24 23 20 -20 22 -22 -19 -18 -6 28 -28 -21 -23
right_child=3 4 -4 -5 5 6 8 -9 -10 10 13 -13 14 -15 -16 -17 17 18 19 26 21 29 -24 -25 -26 -27 27 -29 -30 -31
leaf_value=-0.047841639429218562 0.25878960230523135 -0.016115004790840191 0.25116377146813823 0.15791347047908572 -0.047892743049353398 -0.047953907272403881 -0.047978009350824719 -0.048110324754724799 -0.048030201262266259 -0.048025420879614283 -0.047880909926309195 -0.047854193276423221 -0.047948444361489602 -0.047936908260438726 -0.047946897507321687 -0.047912667257382198 -0.047894025287030323 -0.047942520586318794 -0.047904451125372477 -0.047912154839380924 -0.047956636322598202 -0.04791786253010278 -0.04792568966599102 -0.047920111311697593 -0.047869373341539512 -0.047876235840181226 -0.047897780518367954 -0.047916019208461308 -0.047918022782266333 -0.047912370493664223
leaf_weight=1.9802443161606769 3.8224798887968054 1.5662798322737206 3.9269613325595856 2.6299732476472855 1.0627582184970386 1.5740829408168822 1.2055537328124142 1.2042946703732011 1.3923366516828526 1.1126933991909025 2.0100891999900345 1.1512287147343148 1.1389368064701617 1.2419934831559656 1.6792966276407231 1.0706590861082066 1.1691934801638155 1.839425437152385 1.4410571195185164 1.4452909976243975 1.1418182179331782 1.0727268010377886 1.2372495234012602 1.4494508318603037 1.3698573932051656 14.896957341581583 1.7036647982895377 1.3401002697646616 1.0728583075106142 1.2848037891089914
leaf_count=38 24 28 26 27 20 29 22 21 25 20 38 22 21 23 31 20 22 34 27 27 21 20 23 27 26 282 32 25 20 24
internal_value=0 -0.0259651 0.0664285 0.217673 -0.0468192 -0.0479136 -0.0479351 -0.0480217 -0.0479252 -0.047905 -0.0479337 -0.0479187 -0.0479222 -0.0479023 -0.0479189 -0.0478796 -0.0479164 -0.0479143 -0.04792 -0.0479164 -0.0479223 -0.0479278 -0.0479405 -0.0479326 -0.0478807 -0.0478773 -0.0479098 -0.0479058 -0.0479147 -0.0479149
internal_weight=0 55.7819 10.272 6.45245 45.5099 43.9436 26.9132 2.77838 24.1348 6.34502 4.36478 22.7425 21.5913 3.25208 20.3857 17.0304 18.7064 17.5675 15.0284 11.7396 6.17766 4.7366 2.37907 3.28888 2.53905 15.9597 5.56191 3.04377 2.51815 2.35753
internal_count=1045 994 145 51 849 821 499 50 449 119 81 424 402 61 380 322 349 328 280 219 115 88 44 61 48 302 104 57 47 44
is_linear=0
shrinkage=0.05


Tree=31
num_leaves=31
num_cat=0
split_feature=7 6 6 7 11 0 7 0 6 6 1 8 8 7 0 7 8 11 1 8 0 0 0 0 10 11 8 0 8 0
split_gain=528.516 65.1123 14.7252 59.6037 12.4347 1.16698 0.00631562 0.00467431 0.00333208 0.00331584 0.0019216 0.0015897 0.00964281 0.00308786 0.0013028 0.00120981 0.000513287 0.000644646 0.000347679 0.000197756 9.37931e-05 9.09738e-05 0.000130628 4.06261e-05 6.37238e-05 0.000101641 3.36866e-05 2.67599e-05 6.50792e-07 4.1785e-08
threshold=-2.0353689999999999e-07 -4.6599999999999993 2.7425000000000002 6.6522035000000015 9.0000000000000007e-07 1.6721358773293338 -0.0033063484999999995 15.653638205750847 122000.00000000001 475000.00000000006 0.17323404110614291 0.30401898482764655 0.035314269543296882 2.5605520000000005e-06 0.44491840273637939 0.013000000000000003 0.89927800562516114 14.000000000000002 1.6138125123392033 1.9339013837082268 1.650845975684591 0.97004786523837205 0.49347169354991438 3.1186945433988584 13.505460000000001 113.50000000000001 12.170915358694691 1.8190455025835059 18.064489681122065 2.707232461152222
decision_type=2 2 2 2 2 2 2 2 2 2 2 2 2 2 2 2 2 2 2 2 2 2 2 2 2 2 2 2 2 2
left_child=1 -1 4 -4 -2 6 18 10 -5 -10 -6 12 13 -12 -13 -15 -16 -18 20 -19 -3 22 -21 24 27 -26 -25 -23 -27 -30
right_child=2 5 3 8 7 -7 -8 -9 9 -11 11 14 -14 15 16 -17 17 19 -20 21 -22 23 -24 26 25 28 -28 -29 29 -31
leaf_value=-0.068585696519457007 0.0030704373639190677 0.097110552452276788 0.09738982808359449 -0.068997656613302871 -0.068788589214165738 0.073459007323403491 0.09886672738414129 -0.066381372325401047 -0.066703729407953175 -0.068371309571593042 -0.068688448560824511 -0.068512031236971416 -0.069877627845196369 -0.066741807923415761 -0.067256107887674693 -0.067660823260260128 -0.068182410179492933 -0.067387848794492056 0.097531728240096427 -0.067702927850557051 0.097274705687672769 -0.067668623550513382 -0.068034851268137853 -0.067703602383487868 -0.067436608559095612 -0.067690102099553395 -0.067866078785771278 -0.067807808012876336 -0.067672195625296402 -0.067666280342287319
leaf_weight=6.3913795202970496 6.5032260417938224 74.221080899238586 7.3916332125663784 8.1446175426244753 5.9100438654422751 5.4442990422248831 5.7363348901271811 5.2222772389650336 5.0138336867094022 7.3523182272911072 5.4071369767189088 5.4019713997840872 6.4946706593036643 5.9608539491891852 5.7809597104787818 8.9697765409946424 7.5771512389183036 4.8291792571544638 5.7482809126377097 7.0377893298864347 9.8575862348079664 6.0640614479780188 5.1210105270147324 8.4938464164733869 6.0408531427383449 4.852850720286372 5.1091056466102591 8.0214406251907331 4.8515173196792585 7.7617177665233612
leaf_count=26 25 271 27 33 24 20 21 22 21 30 22 22 26 25 24 37 31 20 21 29 36 25 21 35 25 20 21 33 20 32
internal_value=0 0.0861823 -0.0573317 -0.0243427 -0.0643362 0.0959755 0.0972582 -0.0678457 -0.0682124 -0.0676952 -0.0679095 -0.0678639 -0.0682003 -0.0676647 -0.0677601 -0.0672939 -0.0677102 -0.0677449 0.0971555 -0.0676963 0.0971298 -0.0677198 -0.0678427 -0.0676906 -0.0676638 -0.0676134 -0.0677646 -0.0677479 -0.0676745 -0.0676686
internal_weight=0 107.399 159.314 27.9024 131.411 101.008 95.5633 124.908 20.5108 12.3662 119.686 113.776 26.8324 20.3378 86.9435 14.9306 81.5415 75.7605 89.8269 68.1834 84.0787 63.3542 12.1588 51.1954 37.5924 23.5069 13.603 14.0855 17.4661 12.6132
internal_count=1045 395 650 111 539 369 349 514 84 51 492 468 110 84 358 62 336 312 328 281 307 261 50 211 155 97 56 58 72 52
is_linear=0
shrinkage=0.05


Tree=32
num_leaves=31
num_cat=0
split_feature=2 11 9 10 10 0 0 10 9 0 0 8 9 0 9 6 6 10 9 6 6 0 10 0 9 10 7 0 0 7
split_gain=4.7117 15.0395 2.33447e-05 2.26391e-06 1.34309e-06 7.45865e-07 7.76585e-07 2.37587e-07 1.07081e-07 4.90962e-08 2.28549e-07 3.04601e-11 1.62687e-11 1.328e-11 8.68179e-12 7.42623e-12 2.22213e-11 6.3502e-12 1.06737e-11 5.08765e-12 4.84918e-12 3.86929e-12 2.903e-12 2.32083e-12 2.28063e-12 1.75412e-12 1.67433e-12 5.70044e-13 1.41165e-12 4.96547e-13
threshold=2566.5000000000005 0.0011100000000000003 8.5652338872515775e-08 0.0049379010000000006 0.0039363165000000011 1.6764606452940396 1.7641030373930466 0.0044889830000000011 9.5913327993572923e-05 3.280674888764465 3.7245026344856025 0.021611661273597566 0.0043831066364442509 9.2980459370195927 0.33490828188720539 122000.00000000001 6.7750000000000012 8.7911950000000009e-07 0.0020138186092184657 0.2950000000000001 -0.0050124999999999996 0.45241089029359155 -0.22886899999999996 3.1306640151892133 6.9672752576363122 7.3060000000000009 3.2580365000000007 0.97004786523837205 0.49347169354991438 4.2943445000000011
decision_type=2 2 2 2 2 2 2 2 2 2 2 2 2 2 2 2 2 2 2 2 2 2 2 2 2 2 2 2 2 2
left_child=2 -2 -1 4 5 17 -7 -3 -8 11 -11 -5 -13 14 -12 16 19 22 -19 21 -9 -14 -4 29 -16 -23 -21 28 -27 -22
right_child=1 7 3 9 -6 6 8 20 -10 10 13 12 15 -15 24 -17 -18 18 -20 26 23 25 -24 -25 -26 27 -28 -29 -30 -31
leaf_value=-0.046361718981820073 0.98255104463359144 -0.04565029088213176 -0.045493266007962732 -0.045493117676874605 -0.045805631226125562 -0.045839629940054943 -0.045619329595551476 -0.045493119348251752 -0.045494232647457611 -0.04565142736450719 -0.045494966564973073 -0.045495202414513207 -0.045494515774024746 -0.045492953695232104 -0.045493617906791642 -0.045492986365951581 -0.04549550128508531 -0.045494692910530168 -0.04549305509068631 -0.045493540298241437 -0.045493856402959436 -0.045494174186698599 -0.04549253456003844 -0.045494354754977845 -0.045494286032052259 -0.045493580568466509 -0.045492899091848497 -0.045493678990550075 -0.045494156705391621 -0.045493544545340943
leaf_weight=0.098432744678575324 0.048556846857536695 0.031850931234657764 0.045830340939573944 0.19566255138488486 0.10766299784881994 0.045237743819598109 0.054620734183117747 0.026092204556334764 0.024906884995289147 0.029178381897509098 0.026304506987798959 0.022564690967556089 0.020267971383873373 0.02781088586198166 0.034914861142169684 0.025059012521523982 0.019754446519073099 0.019354011630639434 0.020468071394134313 0.022597356350161135 0.033233543392270803 0.025818232912570238 0.019268005678895861 0.021133077971171588 0.020140478096436709 0.019801039306912571 0.018528707034420222 0.12762250000378117 0.022960474481806159 0.020723299123346806
leaf_count=33 7 17 49 210 29 9 18 28 26 20 27 23 21 30 37 27 20 20 22 24 35 27 21 22 21 21 20 135 24 22
internal_value=0 0.229376 -0.0456271 -0.0455546 -0.0456599 -0.0455916 -0.0456742 -0.0455312 -0.0455802 -0.0455006 -0.0455271 -0.0454936 -0.0454939 -0.0454939 -0.0454942 -0.0454938 -0.0454939 -0.0454934 -0.0454939 -0.0454938 -0.0454937 -0.0454939 -0.045493 -0.0454939 -0.0454939 -0.0454938 -0.0454933 -0.0454937 -0.0454939 -0.0454937
internal_weight=0 0.18159 1.09477 0.996335 0.337349 0.229686 0.124765 0.133033 0.0795276 0.658986 0.138349 0.520637 0.324974 0.109171 0.0813598 0.30241 0.277351 0.10492 0.0398221 0.257596 0.101182 0.21647 0.0650983 0.0750899 0.0550553 0.196202 0.0411261 0.170384 0.0427615 0.0539568
internal_count=1045 131 914 881 194 165 53 124 44 687 135 552 342 115 85 319 292 112 42 272 107 228 70 79 58 207 44 180 45 57
is_linear=0
shrinkage=0.05


Tree=33
num_leaves=31
num_cat=0
split_feature=9 10 7 9 6 6 9 7 11 8 1 1 9 1 8 9 1 7 6 9 10 1 9 6 9 9 11 1 9 7
split_gain=53.3151 7.90107 3.11041 18.5891 0.856163 14.8957 0.000601774 0.000316912 0.000110702 0.000326386 6.53556e-05 1.07611e-05 3.60864e-06 1.99195e-06 1.1777e-06 8.58844e-07 6.70176e-07 4.26662e-07 3.33722e-07 3.20723e-07 8.85807e-07 2.76658e-07 1.62474e-07 1.52734e-07 1.03381e-07 4.55158e-08 2.58771e-08 3.58623e-09 3.56365e-09 3.79003e-09
threshold=1.8046787481249996e-07 2.8048415000000004e-06 -0.011309514999999997 0.0099415796675172766 2.9200000000000004e-06 0.012500000000000002 0.0015061650865017119 0.00015276269500000004 22.500000000000004 12.839070682670764 1.5709642344481491 0.1780846439306015 0.0020075562891784704 1.4345342481881629 0.035314269543296882 9.8790090150992196 0.47851739325338211 2.2375535000000002 -4.6599999999999993 0.5311448190034288 1.6628600000000002 1.2247891731804001 5.0348204760035848 122000.00000000001 0.028265221957544589 0.94549545892726905 143.50000000000003 0.21013819212679 0.0020188959423592247 -0.0034986139999999993
decision_type=2 2 2 2 2 2 2 2 2 2 2 2 2 2 2 2 2 2 2 2 2 2 2 2 2 2 2 2 2 2
left_child=1 -1 3 -2 6 -6 7 -4 17 -10 18 -8 -13 23 28 16 -16 19 -5 20 21 -7 -18 -11 -19 -26 -17 -28 -14 -30
right_child=2 -3 4 10 5 8 11 -9 9 13 -12 12 14 -15 15 26 22 24 -20 -21 -22 -23 -24 -25 25 -27 27 -29 29 -31
leaf_value=0.11298283736130446 0.33812609865775378 0.27399686442755938 -0.046509998310167007 -0.04627932006266286 0.22477419054638748 -0.046226593359600429 -0.04648633297589766 -0.047995565511538753 -0.047628147975750684 -0.046269528784777698 -0.046991324520193362 -0.046378918410519991 -0.046218921461856556 -0.046361845486872465 -0.046342576426731147 -0.046253785859039803 -0.046287896430954767 -0.046219957828038595 -0.046225352766407796 -0.046238999837330902 -0.046347304130073236 -0.046279723480807514 -0.046241998388290642 -0.046226952985166922 -0.046261140601167573 -0.046241134310260196 -0.046244683157021432 -0.046239587229804174 -0.04622387064617825 -0.046218625481087204
leaf_weight=1.5257242936641007 0.38897478766740023 1.5218852311372755 0.63705452717840561 0.44272263161838055 0.55269701033830543 0.37918038107454799 0.49102950654923816 0.82250793091952801 0.66159566305577788 0.36096122115850426 0.38207706250250328 0.48459096439182658 0.48305521160363962 0.62389716319739819 0.45401303470134757 0.46685819700360331 0.40491520054638386 0.48354792967438687 0.81159475818276383 0.51363606564700592 0.41048078052699555 0.6925091315060854 0.36809133552014828 0.50583033449947834 0.39542060904204834 1.0116094406694172 0.44333630055189166 1.5604570042341945 4.1767238043248689 0.37535153515636555
leaf_count=36 13 11 31 23 25 21 24 19 18 19 15 23 27 30 22 25 21 27 45 28 20 36 20 28 21 55 24 85 232 21
internal_value=0 0.193388 -0.0312715 0.0274335 -0.0379665 -0.0236765 -0.0464006 -0.0473472 -0.0464162 -0.0467039 -0.0464188 -0.0462583 -0.0462461 -0.0462937 -0.0462387 -0.0462602 -0.0462944 -0.0462569 -0.0462444 -0.046273 -0.0462848 -0.0462609 -0.046266 -0.0462447 -0.0462399 -0.0462468 -0.0462432 -0.0462407 -0.046223 -0.0462234
internal_weight=0 3.04761 19.7847 2.02537 17.7594 6.59137 11.168 1.45956 6.03867 2.15228 1.63639 9.70842 9.21739 1.49069 8.7328 3.69767 1.22702 3.88638 1.25432 1.99581 1.48217 1.07169 0.773007 0.866792 1.89058 1.40703 2.47065 2.00379 5.03513 4.55208
internal_count=1045 47 998 96 902 328 574 50 303 95 83 524 500 77 477 197 63 208 68 105 77 57 41 47 103 76 134 109 280 253
is_linear=0
shrinkage=0.05


Tree=34
num_leaves=31
num_cat=0
split_feature=1 6 6 8 11 8 6 8 9 1 6 10 0 1 0 6 0 10 0 8 9 8 0 10 9 0 8 9 9 10
split_gain=8.13466 21.4432 0.000430069 4.10071e-09 1.4139e-09 1.32753e-09 9.12383e-10 8.19606e-10 1.35496e-09 5.37795e-10 5.30014e-10 6.59986e-10 4.89933e-10 4.50565e-10 2.3038e-10 2.31753e-10 2.45503e-10 1.37554e-10 1.24875e-10 8.41817e-11 5.55402e-11 2.99269e-11 2.95706e-11 6.04091e-11 1.10627e-11 9.91923e-12 5.98011e-12 1.6056e-11 9.22046e-12 1.58906e-12
threshold=1.5123678703888315 72000.000000000015 122000.00000000001 6.5896859004584876 0.042390000000000004 0.30401898482764655 -6.4999999999999981e-07 1.6331500158173543e-07 1.0100754092743643e-06 0.17323404110614291 1.5400000000000003e-07 1.7567915000000001 0.44491840273637939 1.1418120615617799 8.3828265918496125 0.41100000000000009 2.2362393846446733 0.038401990000000004 1.6721358773293338 1.5777365079600962 0.0020525616665194543 -0.26485311823412711 1.359621541475138 62.279140000000005 0.0020188959423592247 6.0602685211831693 6.1139541806745514 7.2793579116039044 1.0753396370771842 62.279140000000005
decision_type=2 2 2 2 2 2 2 2 2 2 2 2 2 2 2 2 2 2 2 2 2 2 2 2 2 2 2 2 2 2
left_child=2 3 4 10 6 13 17 -8 -9 -7 18 -12 -11 -6 15 19 -17 20 24 -14 -1 -22 23 -21 -2 26 28 -28 -24 -29
right_child=1 -3 -4 -5 5 9 7 8 -10 12 11 -13 14 -15 -16 16 -18 -19 -20 22 21 -23 25 -25 -26 -27 27 29 -30 -31
